<?xml version="1.0"?>
<opencv_storage>
<stage19>
  <maxWeakCount>5</maxWeakCount>
  <stageThreshold>-1.8898797035217285e-01</stageThreshold>
  <weakClassifiers>
    <_>
      <internalNodes>
        0 -1 75617 2.6305317878723145e-02</internalNodes>
      <leafValues>
        -1.5384615957736969e-01 8.6111110448837280e-01</leafValues></_>
    <_>
      <internalNodes>
        0 -1 43689 -1.5790616162121296e-03</internalNodes>
      <leafValues>
        3.6655911803245544e-01 -7.5109267234802246e-01</leafValues></_>
    <_>
      <internalNodes>
        0 -1 38713 6.8725973367691040e-02</internalNodes>
      <leafValues>
        -3.2609164714813232e-01 7.7888119220733643e-01</leafValues></_>
    <_>
      <internalNodes>
        0 -1 122692 -3.9773588068783283e-03</internalNodes>
      <leafValues>
        7.7818751335144043e-01 -3.3642822504043579e-01</leafValues></_>
    <_>
      <internalNodes>
        0 -1 56607 -3.8441311335191131e-04</internalNodes>
      <leafValues>
        -7.4145942926406860e-01 3.8261565566062927e-01</leafValues></_></weakClassifiers></stage19>
</opencv_storage>
