<?xml version="1.0"?>
<opencv_storage>
<stage8>
  <maxWeakCount>5</maxWeakCount>
  <stageThreshold>-2.2067283093929291e-01</stageThreshold>
  <weakClassifiers>
    <_>
      <internalNodes>
        0 -1 57452 -9.3725826591253281e-03</internalNodes>
      <leafValues>
        8.5915493965148926e-01 -1.3924050331115723e-01</leafValues></_>
    <_>
      <internalNodes>
        0 -1 87698 -1.5980836469680071e-03</internalNodes>
      <leafValues>
        4.2331746220588684e-01 -8.7057203054428101e-01</leafValues></_>
    <_>
      <internalNodes>
        0 -1 41602 4.2267991229891777e-03</internalNodes>
      <leafValues>
        -4.8625752329826355e-01 6.9732451438903809e-01</leafValues></_>
    <_>
      <internalNodes>
        0 -1 122761 6.3465917482972145e-03</internalNodes>
      <leafValues>
        -3.6159074306488037e-01 8.2294017076492310e-01</leafValues></_>
    <_>
      <internalNodes>
        0 -1 39716 -1.9929789414163679e-04</internalNodes>
      <leafValues>
        -5.4593837261199951e-01 5.8367466926574707e-01</leafValues></_></weakClassifiers></stage8>
</opencv_storage>
