<?xml version="1.0"?>
<opencv_storage>
<stage18>
  <maxWeakCount>8</maxWeakCount>
  <stageThreshold>-7.9975023865699768e-02</stageThreshold>
  <weakClassifiers>
    <_>
      <internalNodes>
        0 -1 85475 9.5235987100750208e-04</internalNodes>
      <leafValues>
        5.8928573131561279e-01 -4.2105263471603394e-01</leafValues></_>
    <_>
      <internalNodes>
        0 -1 93350 -8.6862146854400635e-03</internalNodes>
      <leafValues>
        8.0442488193511963e-01 -2.7762266993522644e-01</leafValues></_>
    <_>
      <internalNodes>
        0 -1 88261 -9.7998860292136669e-04</internalNodes>
      <leafValues>
        -5.5844140052795410e-01 4.4289270043373108e-01</leafValues></_>
    <_>
      <internalNodes>
        0 -1 65927 1.1037674266844988e-03</internalNodes>
      <leafValues>
        -5.0613313913345337e-01 4.7398912906646729e-01</leafValues></_>
    <_>
      <internalNodes>
        0 -1 46040 2.2534239105880260e-03</internalNodes>
      <leafValues>
        -4.1996520757675171e-01 6.9526654481887817e-01</leafValues></_>
    <_>
      <internalNodes>
        0 -1 103185 -7.5086108408868313e-03</internalNodes>
      <leafValues>
        6.6607618331909180e-01 -3.6956307291984558e-01</leafValues></_>
    <_>
      <internalNodes>
        0 -1 8381 -6.2985834665596485e-03</internalNodes>
      <leafValues>
        9.6755552291870117e-01 -2.5114387273788452e-01</leafValues></_>
    <_>
      <internalNodes>
        0 -1 2897 2.8577838093042374e-02</internalNodes>
      <leafValues>
        -2.9372581839561462e-01 7.4249058961868286e-01</leafValues></_></weakClassifiers></stage18>
</opencv_storage>
