<?xml version="1.0"?>
<opencv_storage>
<stage2>
  <maxWeakCount>5</maxWeakCount>
  <stageThreshold>-2.9015654325485229e-01</stageThreshold>
  <weakClassifiers>
    <_>
      <internalNodes>
        0 -1 42989 4.2387950234115124e-03</internalNodes>
      <leafValues>
        -5.4166668653488159e-01 7.4509805440902710e-01</leafValues></_>
    <_>
      <internalNodes>
        0 -1 102325 -1.2535480782389641e-02</internalNodes>
      <leafValues>
        6.1461997032165527e-01 -6.7653214931488037e-01</leafValues></_>
    <_>
      <internalNodes>
        0 -1 61990 -4.6376269310712814e-03</internalNodes>
      <leafValues>
        6.7095959186553955e-01 -6.2189936637878418e-01</leafValues></_>
    <_>
      <internalNodes>
        0 -1 100960 -8.6368322372436523e-03</internalNodes>
      <leafValues>
        7.8514224290847778e-01 -4.5037457346916199e-01</leafValues></_>
    <_>
      <internalNodes>
        0 -1 117806 -1.4072156045585871e-03</internalNodes>
      <leafValues>
        7.5498867034912109e-01 -5.2635276317596436e-01</leafValues></_></weakClassifiers></stage2>
</opencv_storage>
