<?xml version="1.0"?>
<opencv_storage>
<stage10>
  <maxWeakCount>5</maxWeakCount>
  <stageThreshold>-5.4523986577987671e-01</stageThreshold>
  <weakClassifiers>
    <_>
      <internalNodes>
        0 -1 116523 -3.3978224382735789e-04</internalNodes>
      <leafValues>
        7.5000000000000000e-01 -4.0740740299224854e-01</leafValues></_>
    <_>
      <internalNodes>
        0 -1 47185 -9.1693922877311707e-04</internalNodes>
      <leafValues>
        -5.7662367820739746e-01 6.0003912448883057e-01</leafValues></_>
    <_>
      <internalNodes>
        0 -1 24915 -1.1594662442803383e-02</internalNodes>
      <leafValues>
        8.2873547077178955e-01 -3.1628134846687317e-01</leafValues></_>
    <_>
      <internalNodes>
        0 -1 74385 -2.6572882197797298e-03</internalNodes>
      <leafValues>
        -8.1115412712097168e-01 3.7614518404006958e-01</leafValues></_>
    <_>
      <internalNodes>
        0 -1 23647 -2.1838794928044081e-03</internalNodes>
      <leafValues>
        -7.5352734327316284e-01 3.7892740964889526e-01</leafValues></_></weakClassifiers></stage10>
</opencv_storage>
