<?xml version="1.0"?>
<opencv_storage>
<stage6>
  <maxWeakCount>5</maxWeakCount>
  <stageThreshold>-1.4201731979846954e-01</stageThreshold>
  <weakClassifiers>
    <_>
      <internalNodes>
        0 -1 1200186 -9.8250322043895721e-03</internalNodes>
      <leafValues>
        8.9147287607192993e-01 -2.1126760542392731e-01</leafValues></_>
    <_>
      <internalNodes>
        0 -1 1047603 3.1463720370084047e-04</internalNodes>
      <leafValues>
        6.2276452779769897e-01 -7.6093631982803345e-01</leafValues></_>
    <_>
      <internalNodes>
        0 -1 1232223 -6.3794562593102455e-03</internalNodes>
      <leafValues>
        9.7659069299697876e-01 -4.1344293951988220e-01</leafValues></_>
    <_>
      <internalNodes>
        0 -1 1096299 1.8075233674608171e-04</internalNodes>
      <leafValues>
        5.1786208152770996e-01 -7.9455715417861938e-01</leafValues></_>
    <_>
      <internalNodes>
        0 -1 1144446 -1.7835106700658798e-02</internalNodes>
      <leafValues>
        9.3544626235961914e-01 -5.1272076368331909e-01</leafValues></_></weakClassifiers></stage6>
</opencv_storage>
