<?xml version="1.0"?>
<opencv_storage>
<stage14>
  <maxWeakCount>5</maxWeakCount>
  <stageThreshold>-4.1008344292640686e-01</stageThreshold>
  <weakClassifiers>
    <_>
      <internalNodes>
        0 -1 209078 1.7057538032531738e-02</internalNodes>
      <leafValues>
        6.9491523504257202e-01 -1.</leafValues></_>
    <_>
      <internalNodes>
        0 -1 878219 1.3661663979291916e-03</internalNodes>
      <leafValues>
        -4.7621965408325195e-01 8.7887495756149292e-01</leafValues></_>
    <_>
      <internalNodes>
        0 -1 747764 1.6114655882120132e-03</internalNodes>
      <leafValues>
        7.0180732011795044e-01 -5.6763559579849243e-01</leafValues></_>
    <_>
      <internalNodes>
        0 -1 542520 2.3183668963611126e-03</internalNodes>
      <leafValues>
        -4.9505001306533813e-01 8.7562996149063110e-01</leafValues></_>
    <_>
      <internalNodes>
        0 -1 974699 6.8074598675593734e-04</internalNodes>
      <leafValues>
        4.3390655517578125e-01 -9.5461750030517578e-01</leafValues></_></weakClassifiers></stage14>
</opencv_storage>
