<?xml version="1.0"?>
<opencv_storage>
<stage2>
  <maxWeakCount>5</maxWeakCount>
  <stageThreshold>-3.5307970643043518e-01</stageThreshold>
  <weakClassifiers>
    <_>
      <internalNodes>
        0 -1 974843 1.7742973286658525e-03</internalNodes>
      <leafValues>
        -4.1818180680274963e-01 8.4827584028244019e-01</leafValues></_>
    <_>
      <internalNodes>
        0 -1 1124465 -2.6687728241086006e-03</internalNodes>
      <leafValues>
        -8.1785887479782104e-01 6.3999909162521362e-01</leafValues></_>
    <_>
      <internalNodes>
        0 -1 1063412 -1.4513978734612465e-02</internalNodes>
      <leafValues>
        7.4150002002716064e-01 -6.0007083415985107e-01</leafValues></_>
    <_>
      <internalNodes>
        0 -1 213625 -1.8363794311881065e-02</internalNodes>
      <leafValues>
        9.2477184534072876e-01 -5.1928871870040894e-01</leafValues></_>
    <_>
      <internalNodes>
        0 -1 1006058 1.6785764601081610e-03</internalNodes>
      <leafValues>
        -5.7863843441009521e-01 7.3586291074752808e-01</leafValues></_></weakClassifiers></stage2>
</opencv_storage>
