<?xml version="1.0"?>
<opencv_storage>
<cascade>
  <stageType>BOOST</stageType>
  <featureType>HAAR</featureType>
  <height>40</height>
  <width>40</width>
  <stageParams>
    <boostType>GAB</boostType>
    <minHitRate>9.9500000476837158e-01</minHitRate>
    <maxFalseAlarm>5.0000000000000000e-01</maxFalseAlarm>
    <weightTrimRate>9.4999999999999996e-01</weightTrimRate>
    <maxDepth>1</maxDepth>
    <maxWeakCount>100</maxWeakCount></stageParams>
  <featureParams>
    <maxCatCount>0</maxCatCount>
    <featSize>1</featSize>
    <mode>BASIC</mode></featureParams>
  <stageNum>20</stageNum>
  <stages>
    <!-- stage 0 -->
    <_>
      <maxWeakCount>3</maxWeakCount>
      <stageThreshold>-6.2523198127746582e-01</stageThreshold>
      <weakClassifiers>
        <_>
          <internalNodes>
            0 -1 60 -1.5647908672690392e-02</internalNodes>
          <leafValues>
            8.4415584802627563e-01 -6.5217393636703491e-01</leafValues></_>
        <_>
          <internalNodes>
            0 -1 66 -1.0420696809887886e-02</internalNodes>
          <leafValues>
            7.6253986358642578e-01 -6.8847185373306274e-01</leafValues></_>
        <_>
          <internalNodes>
            0 -1 7 1.1376466602087021e-02</internalNodes>
          <leafValues>
            -7.6671278476715088e-01 7.1541374921798706e-01</leafValues></_></weakClassifiers></_>
    <!-- stage 1 -->
    <_>
      <maxWeakCount>4</maxWeakCount>
      <stageThreshold>1.8190991878509521e-01</stageThreshold>
      <weakClassifiers>
        <_>
          <internalNodes>
            0 -1 40 4.6787504106760025e-03</internalNodes>
          <leafValues>
            -6.0975611209869385e-01 7.8616350889205933e-01</leafValues></_>
        <_>
          <internalNodes>
            0 -1 11 4.6433871611952782e-03</internalNodes>
          <leafValues>
            -5.5745542049407959e-01 8.0536001920700073e-01</leafValues></_>
        <_>
          <internalNodes>
            0 -1 35 -7.5107108568772674e-04</internalNodes>
          <leafValues>
            6.7050987482070923e-01 -7.0754224061965942e-01</leafValues></_>
        <_>
          <internalNodes>
            0 -1 10 2.6462837122380733e-03</internalNodes>
          <leafValues>
            -6.8420392274856567e-01 7.3015433549880981e-01</leafValues></_></weakClassifiers></_>
    <!-- stage 2 -->
    <_>
      <maxWeakCount>5</maxWeakCount>
      <stageThreshold>-3.5307970643043518e-01</stageThreshold>
      <weakClassifiers>
        <_>
          <internalNodes>
            0 -1 43 1.7742973286658525e-03</internalNodes>
          <leafValues>
            -4.1818180680274963e-01 8.4827584028244019e-01</leafValues></_>
        <_>
          <internalNodes>
            0 -1 63 -2.6687728241086006e-03</internalNodes>
          <leafValues>
            -8.1785887479782104e-01 6.3999909162521362e-01</leafValues></_>
        <_>
          <internalNodes>
            0 -1 55 -1.4513978734612465e-02</internalNodes>
          <leafValues>
            7.4150002002716064e-01 -6.0007083415985107e-01</leafValues></_>
        <_>
          <internalNodes>
            0 -1 16 -1.8363794311881065e-02</internalNodes>
          <leafValues>
            9.2477184534072876e-01 -5.1928871870040894e-01</leafValues></_>
        <_>
          <internalNodes>
            0 -1 47 1.6785764601081610e-03</internalNodes>
          <leafValues>
            -5.7863843441009521e-01 7.3586291074752808e-01</leafValues></_></weakClassifiers></_>
    <!-- stage 3 -->
    <_>
      <maxWeakCount>4</maxWeakCount>
      <stageThreshold>-1.1566012352705002e-01</stageThreshold>
      <weakClassifiers>
        <_>
          <internalNodes>
            0 -1 36 6.2776794657111168e-03</internalNodes>
          <leafValues>
            -8.6666667461395264e-01 7.4117648601531982e-01</leafValues></_>
        <_>
          <internalNodes>
            0 -1 57 -5.5768638849258423e-02</internalNodes>
          <leafValues>
            7.6899176836013794e-01 -6.3763278722763062e-01</leafValues></_>
        <_>
          <internalNodes>
            0 -1 4 1.1591394431889057e-02</internalNodes>
          <leafValues>
            -6.4847934246063232e-01 6.9132584333419800e-01</leafValues></_>
        <_>
          <internalNodes>
            0 -1 64 1.5800984692759812e-04</internalNodes>
          <leafValues>
            6.3049411773681641e-01 -7.3194062709808350e-01</leafValues></_></weakClassifiers></_>
    <!-- stage 4 -->
    <_>
      <maxWeakCount>1</maxWeakCount>
      <stageThreshold>7.3410403728485107e-01</stageThreshold>
      <weakClassifiers>
        <_>
          <internalNodes>
            0 -1 17 2.0034715998917818e-03</internalNodes>
          <leafValues>
            7.3410403728485107e-01 -1.</leafValues></_></weakClassifiers></_>
    <!-- stage 5 -->
    <_>
      <maxWeakCount>4</maxWeakCount>
      <stageThreshold>1.8594640493392944e-01</stageThreshold>
      <weakClassifiers>
        <_>
          <internalNodes>
            0 -1 45 8.7698071729391813e-04</internalNodes>
          <leafValues>
            7.3652696609497070e-01 -6.9696968793869019e-01</leafValues></_>
        <_>
          <internalNodes>
            0 -1 48 -1.9339809194207191e-02</internalNodes>
          <leafValues>
            8.2021778821945190e-01 -6.0976999998092651e-01</leafValues></_>
        <_>
          <internalNodes>
            0 -1 68 -2.5120973587036133e-03</internalNodes>
          <leafValues>
            6.5550053119659424e-01 -6.0755217075347900e-01</leafValues></_>
        <_>
          <internalNodes>
            0 -1 19 -2.3630079813301563e-03</internalNodes>
          <leafValues>
            7.0891350507736206e-01 -5.9280216693878174e-01</leafValues></_></weakClassifiers></_>
    <!-- stage 6 -->
    <_>
      <maxWeakCount>5</maxWeakCount>
      <stageThreshold>-1.4201731979846954e-01</stageThreshold>
      <weakClassifiers>
        <_>
          <internalNodes>
            0 -1 70 -9.8250322043895721e-03</internalNodes>
          <leafValues>
            8.9147287607192993e-01 -2.1126760542392731e-01</leafValues></_>
        <_>
          <internalNodes>
            0 -1 50 3.1463720370084047e-04</internalNodes>
          <leafValues>
            6.2276452779769897e-01 -7.6093631982803345e-01</leafValues></_>
        <_>
          <internalNodes>
            0 -1 74 -6.3794562593102455e-03</internalNodes>
          <leafValues>
            9.7659069299697876e-01 -4.1344293951988220e-01</leafValues></_>
        <_>
          <internalNodes>
            0 -1 59 1.8075233674608171e-04</internalNodes>
          <leafValues>
            5.1786208152770996e-01 -7.9455715417861938e-01</leafValues></_>
        <_>
          <internalNodes>
            0 -1 65 -1.7835106700658798e-02</internalNodes>
          <leafValues>
            9.3544626235961914e-01 -5.1272076368331909e-01</leafValues></_></weakClassifiers></_>
    <!-- stage 7 -->
    <_>
      <maxWeakCount>4</maxWeakCount>
      <stageThreshold>-1.0114167928695679e+00</stageThreshold>
      <weakClassifiers>
        <_>
          <internalNodes>
            0 -1 9 -5.8536201715469360e-02</internalNodes>
          <leafValues>
            8.3225804567337036e-01 -6.4444446563720703e-01</leafValues></_>
        <_>
          <internalNodes>
            0 -1 26 4.5264918298926204e-05</internalNodes>
          <leafValues>
            -5.6064754724502563e-01 7.5616967678070068e-01</leafValues></_>
        <_>
          <internalNodes>
            0 -1 8 4.1784662753343582e-03</internalNodes>
          <leafValues>
            -5.6036561727523804e-01 7.6510828733444214e-01</leafValues></_>
        <_>
          <internalNodes>
            0 -1 31 4.5335381291806698e-03</internalNodes>
          <leafValues>
            6.4810550212860107e-01 -7.2266167402267456e-01</leafValues></_></weakClassifiers></_>
    <!-- stage 8 -->
    <_>
      <maxWeakCount>4</maxWeakCount>
      <stageThreshold>1.4992235600948334e-01</stageThreshold>
      <weakClassifiers>
        <_>
          <internalNodes>
            0 -1 33 2.1771553438156843e-03</internalNodes>
          <leafValues>
            7.2619044780731201e-01 -6.8750000000000000e-01</leafValues></_>
        <_>
          <internalNodes>
            0 -1 1 3.3819407224655151e-02</internalNodes>
          <leafValues>
            -4.1775822639465332e-01 8.5088849067687988e-01</leafValues></_>
        <_>
          <internalNodes>
            0 -1 46 2.1541486785281450e-04</internalNodes>
          <leafValues>
            5.9139841794967651e-01 -6.6412436962127686e-01</leafValues></_>
        <_>
          <internalNodes>
            0 -1 67 -2.3163236677646637e-02</internalNodes>
          <leafValues>
            7.0827186107635498e-01 -6.0486459732055664e-01</leafValues></_></weakClassifiers></_>
    <!-- stage 9 -->
    <_>
      <maxWeakCount>3</maxWeakCount>
      <stageThreshold>-4.6165078878402710e-01</stageThreshold>
      <weakClassifiers>
        <_>
          <internalNodes>
            0 -1 58 -5.9367407811805606e-04</internalNodes>
          <leafValues>
            -8.7096774578094482e-01 7.5147926807403564e-01</leafValues></_>
        <_>
          <internalNodes>
            0 -1 21 4.9003763124346733e-03</internalNodes>
          <leafValues>
            6.9762665033340454e-01 -7.5763934850692749e-01</leafValues></_>
        <_>
          <internalNodes>
            0 -1 72 1.2730635935440660e-03</internalNodes>
          <leafValues>
            -4.5549070835113525e-01 8.4535515308380127e-01</leafValues></_></weakClassifiers></_>
    <!-- stage 10 -->
    <_>
      <maxWeakCount>4</maxWeakCount>
      <stageThreshold>-5.3181402385234833e-02</stageThreshold>
      <weakClassifiers>
        <_>
          <internalNodes>
            0 -1 30 -2.4095654487609863e-02</internalNodes>
          <leafValues>
            -8.7500000000000000e-01 7.6190477609634399e-01</leafValues></_>
        <_>
          <internalNodes>
            0 -1 13 3.6498974077403545e-04</internalNodes>
          <leafValues>
            -4.7911226749420166e-01 7.9939979314804077e-01</leafValues></_>
        <_>
          <internalNodes>
            0 -1 49 -1.7248453572392464e-02</internalNodes>
          <leafValues>
            6.8854349851608276e-01 -5.1469892263412476e-01</leafValues></_>
        <_>
          <internalNodes>
            0 -1 27 2.0360876806080341e-04</internalNodes>
          <leafValues>
            -6.6612476110458374e-01 6.2922078371047974e-01</leafValues></_></weakClassifiers></_>
    <!-- stage 11 -->
    <_>
      <maxWeakCount>4</maxWeakCount>
      <stageThreshold>6.7333370447158813e-02</stageThreshold>
      <weakClassifiers>
        <_>
          <internalNodes>
            0 -1 34 -7.9468280076980591e-02</internalNodes>
          <leafValues>
            -9.2592591047286987e-01 7.2254335880279541e-01</leafValues></_>
        <_>
          <internalNodes>
            0 -1 41 1.0727394837886095e-03</internalNodes>
          <leafValues>
            -4.9574846029281616e-01 8.8014471530914307e-01</leafValues></_>
        <_>
          <internalNodes>
            0 -1 38 -4.6146335080265999e-03</internalNodes>
          <leafValues>
            5.4743230342864990e-01 -6.9973325729370117e-01</leafValues></_>
        <_>
          <internalNodes>
            0 -1 51 -4.4975648052059114e-05</internalNodes>
          <leafValues>
            -7.0689380168914795e-01 6.3996917009353638e-01</leafValues></_></weakClassifiers></_>
    <!-- stage 12 -->
    <_>
      <maxWeakCount>4</maxWeakCount>
      <stageThreshold>1.1855860054492950e-01</stageThreshold>
      <weakClassifiers>
        <_>
          <internalNodes>
            0 -1 54 5.5755330249667168e-03</internalNodes>
          <leafValues>
            7.5294119119644165e-01 -9.3333333730697632e-01</leafValues></_>
        <_>
          <internalNodes>
            0 -1 25 2.5647390633821487e-02</internalNodes>
          <leafValues>
            -3.8200286030769348e-01 8.8785392045974731e-01</leafValues></_>
        <_>
          <internalNodes>
            0 -1 28 8.7435599416494370e-03</internalNodes>
          <leafValues>
            5.5239242315292358e-01 -8.9471656084060669e-01</leafValues></_>
        <_>
          <internalNodes>
            0 -1 71 -7.8915059566497803e-03</internalNodes>
          <leafValues>
            8.8150233030319214e-01 -5.4907137155532837e-01</leafValues></_></weakClassifiers></_>
    <!-- stage 13 -->
    <_>
      <maxWeakCount>5</maxWeakCount>
      <stageThreshold>-1.6730551421642303e-01</stageThreshold>
      <weakClassifiers>
        <_>
          <internalNodes>
            0 -1 18 4.5627602376043797e-03</internalNodes>
          <leafValues>
            7.4545454978942871e-01 -6.5714287757873535e-01</leafValues></_>
        <_>
          <internalNodes>
            0 -1 5 3.9508198387920856e-03</internalNodes>
          <leafValues>
            -5.0142896175384521e-01 7.7802544832229614e-01</leafValues></_>
        <_>
          <internalNodes>
            0 -1 73 -6.6076405346393585e-03</internalNodes>
          <leafValues>
            6.7899346351623535e-01 -6.3513493537902832e-01</leafValues></_>
        <_>
          <internalNodes>
            0 -1 37 -5.9684594161808491e-03</internalNodes>
          <leafValues>
            8.2834082841873169e-01 -5.1107043027877808e-01</leafValues></_>
        <_>
          <internalNodes>
            0 -1 0 1.7226917669177055e-02</internalNodes>
          <leafValues>
            -4.6205601096153259e-01 8.5801720619201660e-01</leafValues></_></weakClassifiers></_>
    <!-- stage 14 -->
    <_>
      <maxWeakCount>5</maxWeakCount>
      <stageThreshold>-4.1008344292640686e-01</stageThreshold>
      <weakClassifiers>
        <_>
          <internalNodes>
            0 -1 14 1.7057538032531738e-02</internalNodes>
          <leafValues>
            6.9491523504257202e-01 -1.</leafValues></_>
        <_>
          <internalNodes>
            0 -1 39 1.3661663979291916e-03</internalNodes>
          <leafValues>
            -4.7621965408325195e-01 8.7887495756149292e-01</leafValues></_>
        <_>
          <internalNodes>
            0 -1 32 1.6114655882120132e-03</internalNodes>
          <leafValues>
            7.0180732011795044e-01 -5.6763559579849243e-01</leafValues></_>
        <_>
          <internalNodes>
            0 -1 24 2.3183668963611126e-03</internalNodes>
          <leafValues>
            -4.9505001306533813e-01 8.7562996149063110e-01</leafValues></_>
        <_>
          <internalNodes>
            0 -1 42 6.8074598675593734e-04</internalNodes>
          <leafValues>
            4.3390655517578125e-01 -9.5461750030517578e-01</leafValues></_></weakClassifiers></_>
    <!-- stage 15 -->
    <_>
      <maxWeakCount>4</maxWeakCount>
      <stageThreshold>2.9126173257827759e-01</stageThreshold>
      <weakClassifiers>
        <_>
          <internalNodes>
            0 -1 22 -2.2916536778211594e-02</internalNodes>
          <leafValues>
            -1. 6.7597764730453491e-01</leafValues></_>
        <_>
          <internalNodes>
            0 -1 23 4.3419268913567066e-03</internalNodes>
          <leafValues>
            6.7294692993164062e-01 -7.7090364694595337e-01</leafValues></_>
        <_>
          <internalNodes>
            0 -1 6 -9.6617303788661957e-03</internalNodes>
          <leafValues>
            9.4934040307998657e-01 -5.3791701793670654e-01</leafValues></_>
        <_>
          <internalNodes>
            0 -1 2 1.9973890855908394e-02</internalNodes>
          <leafValues>
            -4.2896452546119690e-01 9.2410475015640259e-01</leafValues></_></weakClassifiers></_>
    <!-- stage 16 -->
    <_>
      <maxWeakCount>3</maxWeakCount>
      <stageThreshold>-5.4523259401321411e-01</stageThreshold>
      <weakClassifiers>
        <_>
          <internalNodes>
            0 -1 44 2.1074838936328888e-02</internalNodes>
          <leafValues>
            7.4269008636474609e-01 -9.3103450536727905e-01</leafValues></_>
        <_>
          <internalNodes>
            0 -1 3 2.3281576111912727e-02</internalNodes>
          <leafValues>
            -4.4837999343872070e-01 8.7448179721832275e-01</leafValues></_>
        <_>
          <internalNodes>
            0 -1 53 -6.4802228007465601e-04</internalNodes>
          <leafValues>
            -8.3954262733459473e-01 5.1423937082290649e-01</leafValues></_></weakClassifiers></_>
    <!-- stage 17 -->
    <_>
      <maxWeakCount>3</maxWeakCount>
      <stageThreshold>-6.7028433084487915e-01</stageThreshold>
      <weakClassifiers>
        <_>
          <internalNodes>
            0 -1 15 2.8569407761096954e-02</internalNodes>
          <leafValues>
            7.5294119119644165e-01 -9.3333333730697632e-01</leafValues></_>
        <_>
          <internalNodes>
            0 -1 20 1.1118528200313449e-03</internalNodes>
          <leafValues>
            6.6144973039627075e-01 -7.8145086765289307e-01</leafValues></_>
        <_>
          <internalNodes>
            0 -1 62 -1.8666058313101530e-03</internalNodes>
          <leafValues>
            7.1464461088180542e-01 -6.4177465438842773e-01</leafValues></_></weakClassifiers></_>
    <!-- stage 18 -->
    <_>
      <maxWeakCount>5</maxWeakCount>
      <stageThreshold>-4.9929094314575195e-01</stageThreshold>
      <weakClassifiers>
        <_>
          <internalNodes>
            0 -1 12 -5.3502684459090233e-03</internalNodes>
          <leafValues>
            -9.2857140302658081e-01 7.3255813121795654e-01</leafValues></_>
        <_>
          <internalNodes>
            0 -1 69 -1.3165245763957500e-03</internalNodes>
          <leafValues>
            7.5435137748718262e-01 -6.4861559867858887e-01</leafValues></_>
        <_>
          <internalNodes>
            0 -1 29 9.3703661113977432e-03</internalNodes>
          <leafValues>
            -4.6763363480567932e-01 9.5348763465881348e-01</leafValues></_>
        <_>
          <internalNodes>
            0 -1 61 -2.1070796065032482e-03</internalNodes>
          <leafValues>
            -6.5032511949539185e-01 7.0147085189819336e-01</leafValues></_>
        <_>
          <internalNodes>
            0 -1 56 -5.6522083468735218e-04</internalNodes>
          <leafValues>
            -8.1707066297531128e-01 6.3609331846237183e-01</leafValues></_></weakClassifiers></_>
    <!-- stage 19 -->
    <_>
      <maxWeakCount>1</maxWeakCount>
      <stageThreshold>7.4418604373931885e-01</stageThreshold>
      <weakClassifiers>
        <_>
          <internalNodes>
            0 -1 52 -2.4331817403435707e-03</internalNodes>
          <leafValues>
            -1. 7.4418604373931885e-01</leafValues></_></weakClassifiers></_></stages>
  <features>
    <_>
      <rects>
        <_>
          0 0 18 34 -1.</_>
        <_>
          9 0 9 34 2.</_></rects>
      <tilted>0</tilted></_>
    <_>
      <rects>
        <_>
          0 3 10 23 -1.</_>
        <_>
          5 3 5 23 2.</_></rects>
      <tilted>0</tilted></_>
    <_>
      <rects>
        <_>
          0 3 16 23 -1.</_>
        <_>
          8 3 8 23 2.</_></rects>
      <tilted>0</tilted></_>
    <_>
      <rects>
        <_>
          0 8 8 17 -1.</_>
        <_>
          4 8 4 17 2.</_></rects>
      <tilted>0</tilted></_>
    <_>
      <rects>
        <_>
          0 12 12 15 -1.</_>
        <_>
          4 12 4 15 3.</_></rects>
      <tilted>0</tilted></_>
    <_>
      <rects>
        <_>
          0 14 6 6 -1.</_>
        <_>
          3 14 3 6 2.</_></rects>
      <tilted>0</tilted></_>
    <_>
      <rects>
        <_>
          1 4 20 10 -1.</_>
        <_>
          1 4 10 5 2.</_>
        <_>
          11 9 10 5 2.</_></rects>
      <tilted>0</tilted></_>
    <_>
      <rects>
        <_>
          1 12 12 16 -1.</_>
        <_>
          5 12 4 16 3.</_></rects>
      <tilted>0</tilted></_>
    <_>
      <rects>
        <_>
          1 15 6 6 -1.</_>
        <_>
          4 15 3 6 2.</_></rects>
      <tilted>0</tilted></_>
    <_>
      <rects>
        <_>
          2 15 36 24 -1.</_>
        <_>
          2 27 36 12 2.</_></rects>
      <tilted>0</tilted></_>
    <_>
      <rects>
        <_>
          2 18 6 4 -1.</_>
        <_>
          4 18 2 4 3.</_></rects>
      <tilted>0</tilted></_>
    <_>
      <rects>
        <_>
          3 1 25 12 -1.</_>
        <_>
          3 5 25 4 3.</_></rects>
      <tilted>0</tilted></_>
    <_>
      <rects>
        <_>
          3 9 28 15 -1.</_>
        <_>
          17 9 14 15 2.</_></rects>
      <tilted>0</tilted></_>
    <_>
      <rects>
        <_>
          3 10 2 14 -1.</_>
        <_>
          3 10 1 7 2.</_>
        <_>
          4 17 1 7 2.</_></rects>
      <tilted>0</tilted></_>
    <_>
      <rects>
        <_>
          3 12 16 16 -1.</_>
        <_>
          3 20 16 8 2.</_></rects>
      <tilted>0</tilted></_>
    <_>
      <rects>
        <_>
          3 14 26 4 -1.</_>
        <_>
          16 14 13 4 2.</_></rects>
      <tilted>0</tilted></_>
    <_>
      <rects>
        <_>
          3 15 4 22 -1.</_>
        <_>
          3 26 4 11 2.</_></rects>
      <tilted>0</tilted></_>
    <_>
      <rects>
        <_>
          5 17 8 7 -1.</_>
        <_>
          9 17 4 7 2.</_></rects>
      <tilted>0</tilted></_>
    <_>
      <rects>
        <_>
          5 18 16 14 -1.</_>
        <_>
          5 25 16 7 2.</_></rects>
      <tilted>0</tilted></_>
    <_>
      <rects>
        <_>
          6 4 6 24 -1.</_>
        <_>
          6 4 3 12 2.</_>
        <_>
          9 16 3 12 2.</_></rects>
      <tilted>0</tilted></_>
    <_>
      <rects>
        <_>
          6 11 10 14 -1.</_>
        <_>
          6 18 10 7 2.</_></rects>
      <tilted>0</tilted></_>
    <_>
      <rects>
        <_>
          6 19 15 8 -1.</_>
        <_>
          11 19 5 8 3.</_></rects>
      <tilted>0</tilted></_>
    <_>
      <rects>
        <_>
          8 14 12 14 -1.</_>
        <_>
          8 21 12 7 2.</_></rects>
      <tilted>0</tilted></_>
    <_>
      <rects>
        <_>
          9 15 15 14 -1.</_>
        <_>
          9 22 15 7 2.</_></rects>
      <tilted>0</tilted></_>
    <_>
      <rects>
        <_>
          10 0 4 10 -1.</_>
        <_>
          10 5 4 5 2.</_></rects>
      <tilted>0</tilted></_>
    <_>
      <rects>
        <_>
          10 0 11 18 -1.</_>
        <_>
          10 6 11 6 3.</_></rects>
      <tilted>0</tilted></_>
    <_>
      <rects>
        <_>
          11 4 18 3 -1.</_>
        <_>
          17 4 6 3 3.</_></rects>
      <tilted>0</tilted></_>
    <_>
      <rects>
        <_>
          12 12 14 4 -1.</_>
        <_>
          12 12 7 2 2.</_>
        <_>
          19 14 7 2 2.</_></rects>
      <tilted>0</tilted></_>
    <_>
      <rects>
        <_>
          13 20 12 6 -1.</_>
        <_>
          19 20 6 6 2.</_></rects>
      <tilted>0</tilted></_>
    <_>
      <rects>
        <_>
          14 1 14 8 -1.</_>
        <_>
          14 5 14 4 2.</_></rects>
      <tilted>0</tilted></_>
    <_>
      <rects>
        <_>
          14 14 9 16 -1.</_>
        <_>
          14 22 9 8 2.</_></rects>
      <tilted>0</tilted></_>
    <_>
      <rects>
        <_>
          14 21 10 7 -1.</_>
        <_>
          19 21 5 7 2.</_></rects>
      <tilted>0</tilted></_>
    <_>
      <rects>
        <_>
          14 22 10 5 -1.</_>
        <_>
          19 22 5 5 2.</_></rects>
      <tilted>0</tilted></_>
    <_>
      <rects>
        <_>
          15 6 10 6 -1.</_>
        <_>
          15 9 10 3 2.</_></rects>
      <tilted>0</tilted></_>
    <_>
      <rects>
        <_>
          15 14 13 22 -1.</_>
        <_>
          15 25 13 11 2.</_></rects>
      <tilted>0</tilted></_>
    <_>
      <rects>
        <_>
          15 17 12 6 -1.</_>
        <_>
          15 17 6 3 2.</_>
        <_>
          21 20 6 3 2.</_></rects>
      <tilted>0</tilted></_>
    <_>
      <rects>
        <_>
          16 6 18 16 -1.</_>
        <_>
          22 6 6 16 3.</_></rects>
      <tilted>0</tilted></_>
    <_>
      <rects>
        <_>
          16 15 8 10 -1.</_>
        <_>
          16 15 4 5 2.</_>
        <_>
          20 20 4 5 2.</_></rects>
      <tilted>0</tilted></_>
    <_>
      <rects>
        <_>
          16 23 22 12 -1.</_>
        <_>
          16 23 11 6 2.</_>
        <_>
          27 29 11 6 2.</_></rects>
      <tilted>0</tilted></_>
    <_>
      <rects>
        <_>
          18 9 4 8 -1.</_>
        <_>
          20 9 2 8 2.</_></rects>
      <tilted>0</tilted></_>
    <_>
      <rects>
        <_>
          19 24 21 2 -1.</_>
        <_>
          26 24 7 2 3.</_></rects>
      <tilted>0</tilted></_>
    <_>
      <rects>
        <_>
          21 0 3 6 -1.</_>
        <_>
          21 3 3 3 2.</_></rects>
      <tilted>0</tilted></_>
    <_>
      <rects>
        <_>
          21 11 10 3 -1.</_>
        <_>
          21 12 10 1 3.</_></rects>
      <tilted>0</tilted></_>
    <_>
      <rects>
        <_>
          21 11 16 12 -1.</_>
        <_>
          21 15 16 4 3.</_></rects>
      <tilted>0</tilted></_>
    <_>
      <rects>
        <_>
          21 13 10 18 -1.</_>
        <_>
          21 19 10 6 3.</_></rects>
      <tilted>0</tilted></_>
    <_>
      <rects>
        <_>
          21 15 5 18 -1.</_>
        <_>
          21 21 5 6 3.</_></rects>
      <tilted>0</tilted></_>
    <_>
      <rects>
        <_>
          22 13 1 24 -1.</_>
        <_>
          22 21 1 8 3.</_></rects>
      <tilted>0</tilted></_>
    <_>
      <rects>
        <_>
          22 15 8 8 -1.</_>
        <_>
          22 15 4 4 2.</_>
        <_>
          26 19 4 4 2.</_></rects>
      <tilted>0</tilted></_>
    <_>
      <rects>
        <_>
          22 28 11 12 -1.</_>
        <_>
          22 34 11 6 2.</_></rects>
      <tilted>0</tilted></_>
    <_>
      <rects>
        <_>
          22 30 12 10 -1.</_>
        <_>
          22 35 12 5 2.</_></rects>
      <tilted>0</tilted></_>
    <_>
      <rects>
        <_>
          24 5 4 3 -1.</_>
        <_>
          26 5 2 3 2.</_></rects>
      <tilted>0</tilted></_>
    <_>
      <rects>
        <_>
          24 10 4 1 -1.</_>
        <_>
          26 10 2 1 2.</_></rects>
      <tilted>0</tilted></_>
    <_>
      <rects>
        <_>
          24 10 5 8 -1.</_>
        <_>
          24 14 5 4 2.</_></rects>
      <tilted>0</tilted></_>
    <_>
      <rects>
        <_>
          24 13 4 6 -1.</_>
        <_>
          24 15 4 2 3.</_></rects>
      <tilted>0</tilted></_>
    <_>
      <rects>
        <_>
          24 19 4 12 -1.</_>
        <_>
          24 25 4 6 2.</_></rects>
      <tilted>0</tilted></_>
    <_>
      <rects>
        <_>
          24 26 6 14 -1.</_>
        <_>
          24 33 6 7 2.</_></rects>
      <tilted>0</tilted></_>
    <_>
      <rects>
        <_>
          25 7 6 7 -1.</_>
        <_>
          27 7 2 7 3.</_></rects>
      <tilted>0</tilted></_>
    <_>
      <rects>
        <_>
          26 3 14 33 -1.</_>
        <_>
          33 3 7 33 2.</_></rects>
      <tilted>0</tilted></_>
    <_>
      <rects>
        <_>
          26 7 1 10 -1.</_>
        <_>
          26 12 1 5 2.</_></rects>
      <tilted>0</tilted></_>
    <_>
      <rects>
        <_>
          26 8 1 9 -1.</_>
        <_>
          26 11 1 3 3.</_></rects>
      <tilted>0</tilted></_>
    <_>
      <rects>
        <_>
          26 13 14 18 -1.</_>
        <_>
          33 13 7 18 2.</_></rects>
      <tilted>0</tilted></_>
    <_>
      <rects>
        <_>
          26 14 6 12 -1.</_>
        <_>
          26 18 6 4 3.</_></rects>
      <tilted>0</tilted></_>
    <_>
      <rects>
        <_>
          27 11 8 12 -1.</_>
        <_>
          31 11 4 12 2.</_></rects>
      <tilted>0</tilted></_>
    <_>
      <rects>
        <_>
          27 20 6 12 -1.</_>
        <_>
          27 24 6 4 3.</_></rects>
      <tilted>0</tilted></_>
    <_>
      <rects>
        <_>
          28 10 2 10 -1.</_>
        <_>
          28 10 1 5 2.</_>
        <_>
          29 15 1 5 2.</_></rects>
      <tilted>0</tilted></_>
    <_>
      <rects>
        <_>
          28 23 9 12 -1.</_>
        <_>
          28 29 9 6 2.</_></rects>
      <tilted>0</tilted></_>
    <_>
      <rects>
        <_>
          29 24 4 16 -1.</_>
        <_>
          29 32 4 8 2.</_></rects>
      <tilted>0</tilted></_>
    <_>
      <rects>
        <_>
          30 9 8 28 -1.</_>
        <_>
          34 9 4 28 2.</_></rects>
      <tilted>0</tilted></_>
    <_>
      <rects>
        <_>
          30 22 10 2 -1.</_>
        <_>
          35 22 5 2 2.</_></rects>
      <tilted>0</tilted></_>
    <_>
      <rects>
        <_>
          30 28 3 8 -1.</_>
        <_>
          30 32 3 4 2.</_></rects>
      <tilted>0</tilted></_>
    <_>
      <rects>
        <_>
          32 18 4 20 -1.</_>
        <_>
          32 28 4 10 2.</_></rects>
      <tilted>0</tilted></_>
    <_>
      <rects>
        <_>
          32 22 8 5 -1.</_>
        <_>
          36 22 4 5 2.</_></rects>
      <tilted>0</tilted></_>
    <_>
      <rects>
        <_>
          34 1 3 21 -1.</_>
        <_>
          34 8 3 7 3.</_></rects>
      <tilted>0</tilted></_>
    <_>
      <rects>
        <_>
          34 16 3 24 -1.</_>
        <_>
          34 28 3 12 2.</_></rects>
      <tilted>0</tilted></_>
    <_>
      <rects>
        <_>
          36 11 4 17 -1.</_>
        <_>
          38 11 2 17 2.</_></rects>
      <tilted>0</tilted></_></features></cascade>
</opencv_storage>
