<?xml version="1.0"?>
<opencv_storage>
<stage13>
  <maxWeakCount>29</maxWeakCount>
  <stageThreshold>-9.5102101564407349e-01</stageThreshold>
  <weakClassifiers>
    <_>
      <internalNodes>
        0 -1 112693 -5.5413343943655491e-03</internalNodes>
      <leafValues>
        5.2538073062896729e-01 -1.1572699993848801e-01</leafValues></_>
    <_>
      <internalNodes>
        0 -1 72436 1.2172614037990570e-01</internalNodes>
      <leafValues>
        -2.7631670236587524e-01 3.3647304773330688e-01</leafValues></_>
    <_>
      <internalNodes>
        0 -1 90442 5.5423323065042496e-03</internalNodes>
      <leafValues>
        -4.5231473445892334e-01 1.6712918877601624e-01</leafValues></_>
    <_>
      <internalNodes>
        0 -1 120061 -1.5575722791254520e-03</internalNodes>
      <leafValues>
        -4.7698429226875305e-01 1.4224168658256531e-01</leafValues></_>
    <_>
      <internalNodes>
        0 -1 103969 1.0560000315308571e-02</internalNodes>
      <leafValues>
        -1.5785516798496246e-01 4.5636305212974548e-01</leafValues></_>
    <_>
      <internalNodes>
        0 -1 117433 1.2717989739030600e-03</internalNodes>
      <leafValues>
        -1.6692727804183960e-01 4.7987464070320129e-01</leafValues></_>
    <_>
      <internalNodes>
        0 -1 109695 -7.0423935540020466e-03</internalNodes>
      <leafValues>
        -4.9453267455101013e-01 1.5183696150779724e-01</leafValues></_>
    <_>
      <internalNodes>
        0 -1 6952 -1.9729648530483246e-01</internalNodes>
      <leafValues>
        5.3636103868484497e-01 -1.5284126996994019e-01</leafValues></_>
    <_>
      <internalNodes>
        0 -1 50319 -1.8466878682374954e-03</internalNodes>
      <leafValues>
        -3.1905564665794373e-01 2.1334163844585419e-01</leafValues></_>
    <_>
      <internalNodes>
        0 -1 85540 5.2712392061948776e-04</internalNodes>
      <leafValues>
        -2.1820254623889923e-01 3.2311493158340454e-01</leafValues></_>
    <_>
      <internalNodes>
        0 -1 35966 2.7241870760917664e-02</internalNodes>
      <leafValues>
        1.8818275630474091e-01 -3.7251493334770203e-01</leafValues></_>
    <_>
      <internalNodes>
        0 -1 62710 2.4641589261591434e-03</internalNodes>
      <leafValues>
        -2.6044675707817078e-01 2.6774418354034424e-01</leafValues></_>
    <_>
      <internalNodes>
        0 -1 59719 -1.7458457499742508e-02</internalNodes>
      <leafValues>
        5.7680666446685791e-01 -1.2193559855222702e-01</leafValues></_>
    <_>
      <internalNodes>
        0 -1 84634 -3.1124446541070938e-03</internalNodes>
      <leafValues>
        -6.3982069492340088e-01 1.0656525939702988e-01</leafValues></_>
    <_>
      <internalNodes>
        0 -1 46427 5.5967941880226135e-03</internalNodes>
      <leafValues>
        -1.5185685455799103e-01 4.2040863633155823e-01</leafValues></_>
    <_>
      <internalNodes>
        0 -1 123441 9.7510067280381918e-04</internalNodes>
      <leafValues>
        1.9550527632236481e-01 -3.0086937546730042e-01</leafValues></_>
    <_>
      <internalNodes>
        0 -1 104079 -2.0439643412828445e-03</internalNodes>
      <leafValues>
        4.8466876149177551e-01 -1.2535040080547333e-01</leafValues></_>
    <_>
      <internalNodes>
        0 -1 108304 7.9075777903199196e-03</internalNodes>
      <leafValues>
        2.0226384699344635e-01 -3.1004616618156433e-01</leafValues></_>
    <_>
      <internalNodes>
        0 -1 103248 2.0504858344793320e-02</internalNodes>
      <leafValues>
        1.5310057997703552e-01 -4.7289782762527466e-01</leafValues></_>
    <_>
      <internalNodes>
        0 -1 92441 -2.6871676091104746e-03</internalNodes>
      <leafValues>
        4.2311948537826538e-01 -1.5326568484306335e-01</leafValues></_>
    <_>
      <internalNodes>
        0 -1 109614 -1.0855792090296745e-02</internalNodes>
      <leafValues>
        5.0953727960586548e-01 -1.3941453397274017e-01</leafValues></_>
    <_>
      <internalNodes>
        0 -1 54426 2.0571667701005936e-02</internalNodes>
      <leafValues>
        8.9739546179771423e-02 -7.4175924062728882e-01</leafValues></_>
    <_>
      <internalNodes>
        0 -1 112090 -2.9077799990773201e-04</internalNodes>
      <leafValues>
        -3.7691277265548706e-01 1.5510413050651550e-01</leafValues></_>
    <_>
      <internalNodes>
        0 -1 111661 4.9940735101699829e-02</internalNodes>
      <leafValues>
        1.8093840777873993e-01 -3.1249931454658508e-01</leafValues></_>
    <_>
      <internalNodes>
        0 -1 115829 -1.9546564668416977e-02</internalNodes>
      <leafValues>
        5.4515027999877930e-01 -1.1884636431932449e-01</leafValues></_>
    <_>
      <internalNodes>
        0 -1 120499 1.8450562492944300e-04</internalNodes>
      <leafValues>
        -2.6285359263420105e-01 2.3156635463237762e-01</leafValues></_>
    <_>
      <internalNodes>
        0 -1 70196 -8.6485054343938828e-03</internalNodes>
      <leafValues>
        4.8077490925788879e-01 -1.3381962478160858e-01</leafValues></_>
    <_>
      <internalNodes>
        0 -1 110383 -4.5467363670468330e-03</internalNodes>
      <leafValues>
        -5.3492635488510132e-01 1.2120290845632553e-01</leafValues></_>
    <_>
      <internalNodes>
        0 -1 76292 -1.0289087658748031e-03</internalNodes>
      <leafValues>
        -5.7021778821945190e-01 8.8835619390010834e-02</leafValues></_></weakClassifiers></stage13>
</opencv_storage>
