<?xml version="1.0"?>
<opencv_storage>
<stage3>
  <maxWeakCount>16</maxWeakCount>
  <stageThreshold>-1.1647193431854248e+00</stageThreshold>
  <weakClassifiers>
    <_>
      <internalNodes>
        0 -1 5392 1.1086364090442657e-01</internalNodes>
      <leafValues>
        -4.4660192728042603e-01 7.8401124477386475e-01</leafValues></_>
    <_>
      <internalNodes>
        0 -1 19810 3.8093987107276917e-01</internalNodes>
      <leafValues>
        -2.7200210094451904e-01 6.7168986797332764e-01</leafValues></_>
    <_>
      <internalNodes>
        0 -1 104812 -3.3511854708194733e-02</internalNodes>
      <leafValues>
        5.6903719902038574e-01 -2.4480466544628143e-01</leafValues></_>
    <_>
      <internalNodes>
        0 -1 68341 9.0835738228634000e-04</internalNodes>
      <leafValues>
        -3.5571637749671936e-01 4.5013108849525452e-01</leafValues></_>
    <_>
      <internalNodes>
        0 -1 84850 -1.9839303568005562e-02</internalNodes>
      <leafValues>
        -5.9725993871688843e-01 1.7469584941864014e-01</leafValues></_>
    <_>
      <internalNodes>
        0 -1 77111 -3.6235996522009373e-03</internalNodes>
      <leafValues>
        5.7721364498138428e-01 -2.4097642302513123e-01</leafValues></_>
    <_>
      <internalNodes>
        0 -1 23529 1.5844872593879700e-01</internalNodes>
      <leafValues>
        -2.7118876576423645e-01 5.2192956209182739e-01</leafValues></_>
    <_>
      <internalNodes>
        0 -1 103751 -1.4598225243389606e-03</internalNodes>
      <leafValues>
        5.3156572580337524e-01 -2.5383743643760681e-01</leafValues></_>
    <_>
      <internalNodes>
        0 -1 117817 4.2170835658907890e-03</internalNodes>
      <leafValues>
        -2.4583543837070465e-01 4.4335809350013733e-01</leafValues></_>
    <_>
      <internalNodes>
        0 -1 109106 -2.2849635570310056e-04</internalNodes>
      <leafValues>
        3.7402465939521790e-01 -2.9549351334571838e-01</leafValues></_>
    <_>
      <internalNodes>
        0 -1 83962 -8.8471509516239166e-03</internalNodes>
      <leafValues>
        -7.9604071378707886e-01 1.5452407300472260e-01</leafValues></_>
    <_>
      <internalNodes>
        0 -1 71119 8.4894197061657906e-03</internalNodes>
      <leafValues>
        -2.7971881628036499e-01 4.3947768211364746e-01</leafValues></_>
    <_>
      <internalNodes>
        0 -1 69382 1.7699832096695900e-04</internalNodes>
      <leafValues>
        -3.8146242499351501e-01 2.6049768924713135e-01</leafValues></_>
    <_>
      <internalNodes>
        0 -1 105570 -3.2003365922719240e-03</internalNodes>
      <leafValues>
        -8.2889956235885620e-01 1.2370637059211731e-01</leafValues></_>
    <_>
      <internalNodes>
        0 -1 40044 -4.7524526715278625e-02</internalNodes>
      <leafValues>
        5.2405440807342529e-01 -2.0661276578903198e-01</leafValues></_>
    <_>
      <internalNodes>
        0 -1 103749 1.3605155982077122e-03</internalNodes>
      <leafValues>
        -2.3995183408260345e-01 4.4193872809410095e-01</leafValues></_></weakClassifiers></stage3>
</opencv_storage>
