<?xml version="1.0"?>
<opencv_storage>
<stage11>
  <maxWeakCount>30</maxWeakCount>
  <stageThreshold>-9.5583766698837280e-01</stageThreshold>
  <weakClassifiers>
    <_>
      <internalNodes>
        0 -1 103948 -2.4686125107109547e-03</internalNodes>
      <leafValues>
        4.9448123574256897e-01 -3.3333334326744080e-01</leafValues></_>
    <_>
      <internalNodes>
        0 -1 64829 8.4595501422882080e-02</internalNodes>
      <leafValues>
        -2.0497456192970276e-01 4.5271104574203491e-01</leafValues></_>
    <_>
      <internalNodes>
        0 -1 117799 1.8781102262437344e-03</internalNodes>
      <leafValues>
        -2.4349182844161987e-01 3.3878129720687866e-01</leafValues></_>
    <_>
      <internalNodes>
        0 -1 103589 -1.9713509827852249e-03</internalNodes>
      <leafValues>
        -4.0800064802169800e-01 1.7594884335994720e-01</leafValues></_>
    <_>
      <internalNodes>
        0 -1 61156 -6.2559135258197784e-03</internalNodes>
      <leafValues>
        1.7320863902568817e-01 -4.3263065814971924e-01</leafValues></_>
    <_>
      <internalNodes>
        0 -1 68719 -2.4561006575822830e-02</internalNodes>
      <leafValues>
        4.6879476308822632e-01 -1.9546644389629364e-01</leafValues></_>
    <_>
      <internalNodes>
        0 -1 31944 -1.1251321434974670e-01</internalNodes>
      <leafValues>
        -5.4799133539199829e-01 1.6222798824310303e-01</leafValues></_>
    <_>
      <internalNodes>
        0 -1 69132 2.2830669768154621e-03</internalNodes>
      <leafValues>
        -2.1340678632259369e-01 2.9105573892593384e-01</leafValues></_>
    <_>
      <internalNodes>
        0 -1 77527 1.4352386351674795e-03</internalNodes>
      <leafValues>
        -1.8237270414829254e-01 4.5026579499244690e-01</leafValues></_>
    <_>
      <internalNodes>
        0 -1 76848 2.5264489522669464e-05</internalNodes>
      <leafValues>
        -3.3109030127525330e-01 1.9811253249645233e-01</leafValues></_>
    <_>
      <internalNodes>
        0 -1 9952 2.3279529996216297e-03</internalNodes>
      <leafValues>
        1.0849049687385559e-01 -5.4466491937637329e-01</leafValues></_>
    <_>
      <internalNodes>
        0 -1 64142 -1.4552026055753231e-02</internalNodes>
      <leafValues>
        5.7901239395141602e-01 -1.2338382750749588e-01</leafValues></_>
    <_>
      <internalNodes>
        0 -1 55223 2.9441585764288902e-02</internalNodes>
      <leafValues>
        1.0955560207366943e-01 -6.9117331504821777e-01</leafValues></_>
    <_>
      <internalNodes>
        0 -1 90542 1.6922856448218226e-03</internalNodes>
      <leafValues>
        -2.3954674601554871e-01 2.6996508240699768e-01</leafValues></_>
    <_>
      <internalNodes>
        0 -1 97118 -3.2071983441710472e-03</internalNodes>
      <leafValues>
        4.1215667128562927e-01 -1.6626970469951630e-01</leafValues></_>
    <_>
      <internalNodes>
        0 -1 108938 2.0261874888092279e-03</internalNodes>
      <leafValues>
        -3.4692096710205078e-01 1.8007822334766388e-01</leafValues></_>
    <_>
      <internalNodes>
        0 -1 71315 6.6871829330921173e-03</internalNodes>
      <leafValues>
        -1.8842983245849609e-01 3.9322111010551453e-01</leafValues></_>
    <_>
      <internalNodes>
        0 -1 89492 2.4810605682432652e-03</internalNodes>
      <leafValues>
        -1.3716006278991699e-01 4.1603499650955200e-01</leafValues></_>
    <_>
      <internalNodes>
        0 -1 80090 -1.1234555393457413e-02</internalNodes>
      <leafValues>
        3.5174763202667236e-01 -2.0979635417461395e-01</leafValues></_>
    <_>
      <internalNodes>
        0 -1 14157 -1.1245715431869030e-03</internalNodes>
      <leafValues>
        -3.7815606594085693e-01 1.7744266986846924e-01</leafValues></_>
    <_>
      <internalNodes>
        0 -1 48185 -6.2975898385047913e-02</internalNodes>
      <leafValues>
        6.8872314691543579e-01 -1.0632885992527008e-01</leafValues></_>
    <_>
      <internalNodes>
        0 -1 105126 -2.7944834437221289e-03</internalNodes>
      <leafValues>
        2.2777007520198822e-01 -2.5900495052337646e-01</leafValues></_>
    <_>
      <internalNodes>
        0 -1 91486 6.0840467922389507e-03</internalNodes>
      <leafValues>
        8.4884636104106903e-02 -7.2394740581512451e-01</leafValues></_>
    <_>
      <internalNodes>
        0 -1 61290 1.9155147310812026e-04</internalNodes>
      <leafValues>
        -2.8418231010437012e-01 1.9977898895740509e-01</leafValues></_>
    <_>
      <internalNodes>
        0 -1 49040 7.8233331441879272e-03</internalNodes>
      <leafValues>
        1.1140637099742889e-01 -5.5058807134628296e-01</leafValues></_>
    <_>
      <internalNodes>
        0 -1 113816 3.4182891249656677e-02</internalNodes>
      <leafValues>
        9.7249962389469147e-02 -6.0394573211669922e-01</leafValues></_>
    <_>
      <internalNodes>
        0 -1 107053 1.8571544438600540e-02</internalNodes>
      <leafValues>
        -1.2532737851142883e-01 5.1983392238616943e-01</leafValues></_>
    <_>
      <internalNodes>
        0 -1 77368 4.6947514638304710e-03</internalNodes>
      <leafValues>
        1.0475567728281021e-01 -7.5078028440475464e-01</leafValues></_>
    <_>
      <internalNodes>
        0 -1 91916 1.0562303476035595e-02</internalNodes>
      <leafValues>
        -1.6353172063827515e-01 4.5519435405731201e-01</leafValues></_>
    <_>
      <internalNodes>
        0 -1 68434 -3.3460087142884731e-03</internalNodes>
      <leafValues>
        4.0918487310409546e-01 -1.5675584971904755e-01</leafValues></_></weakClassifiers></stage11>
</opencv_storage>
