<?xml version="1.0"?>
<opencv_storage>
<stage19>
  <maxWeakCount>36</maxWeakCount>
  <stageThreshold>-7.8504091501235962e-01</stageThreshold>
  <weakClassifiers>
    <_>
      <internalNodes>
        0 -1 42258 1.0873861610889435e-02</internalNodes>
      <leafValues>
        -1.1111111193895340e-01 4.7368422150611877e-01</leafValues></_>
    <_>
      <internalNodes>
        0 -1 64004 -5.1053553819656372e-02</internalNodes>
      <leafValues>
        4.3525636196136475e-01 -1.1441758275032043e-01</leafValues></_>
    <_>
      <internalNodes>
        0 -1 97755 9.9226273596286774e-04</internalNodes>
      <leafValues>
        -3.8860616087913513e-01 1.4125825464725494e-01</leafValues></_>
    <_>
      <internalNodes>
        0 -1 113927 -2.3718951269984245e-03</internalNodes>
      <leafValues>
        5.2844029664993286e-01 -1.1653104424476624e-01</leafValues></_>
    <_>
      <internalNodes>
        0 -1 76506 1.2231869623064995e-03</internalNodes>
      <leafValues>
        -3.1012785434722900e-01 1.9042079150676727e-01</leafValues></_>
    <_>
      <internalNodes>
        0 -1 76860 -5.9541407972574234e-04</internalNodes>
      <leafValues>
        -4.3280890583992004e-01 1.3758657872676849e-01</leafValues></_>
    <_>
      <internalNodes>
        0 -1 35837 -1.0813297703862190e-02</internalNodes>
      <leafValues>
        8.6118704080581665e-01 -6.1891850084066391e-02</leafValues></_>
    <_>
      <internalNodes>
        0 -1 83698 4.8419617814943194e-04</internalNodes>
      <leafValues>
        -2.6844593882560730e-01 2.2011183202266693e-01</leafValues></_>
    <_>
      <internalNodes>
        0 -1 63046 1.0115729644894600e-02</internalNodes>
      <leafValues>
        -1.8841855227947235e-01 3.4165745973587036e-01</leafValues></_>
    <_>
      <internalNodes>
        0 -1 35066 2.0988322794437408e-02</internalNodes>
      <leafValues>
        1.9405239820480347e-01 -3.3000871539115906e-01</leafValues></_>
    <_>
      <internalNodes>
        0 -1 75562 -1.2706388719379902e-02</internalNodes>
      <leafValues>
        5.7900345325469971e-01 -8.6155220866203308e-02</leafValues></_>
    <_>
      <internalNodes>
        0 -1 69272 -1.1771145276725292e-02</internalNodes>
      <leafValues>
        4.7470790147781372e-01 -1.3866537809371948e-01</leafValues></_>
    <_>
      <internalNodes>
        0 -1 76941 1.4801044017076492e-03</internalNodes>
      <leafValues>
        -2.0239660143852234e-01 2.8748017549514771e-01</leafValues></_>
    <_>
      <internalNodes>
        0 -1 91125 2.3391768336296082e-03</internalNodes>
      <leafValues>
        2.7702173590660095e-01 -2.1982258558273315e-01</leafValues></_>
    <_>
      <internalNodes>
        0 -1 53614 -5.2833415567874908e-02</internalNodes>
      <leafValues>
        -8.8334953784942627e-01 6.1531361192464828e-02</leafValues></_>
    <_>
      <internalNodes>
        0 -1 31338 4.5524366199970245e-02</internalNodes>
      <leafValues>
        -3.3446782827377319e-01 1.8590900301933289e-01</leafValues></_>
    <_>
      <internalNodes>
        0 -1 121652 -7.5403670780360699e-04</internalNodes>
      <leafValues>
        -3.4896463155746460e-01 1.6159260272979736e-01</leafValues></_>
    <_>
      <internalNodes>
        0 -1 65115 -4.7499246895313263e-02</internalNodes>
      <leafValues>
        5.6480896472930908e-01 -9.7807548940181732e-02</leafValues></_>
    <_>
      <internalNodes>
        0 -1 108005 4.9522775225341320e-03</internalNodes>
      <leafValues>
        1.1830761283636093e-01 -5.3481256961822510e-01</leafValues></_>
    <_>
      <internalNodes>
        0 -1 52159 3.3887118101119995e-02</internalNodes>
      <leafValues>
        9.3023650348186493e-02 -6.1198753118515015e-01</leafValues></_>
    <_>
      <internalNodes>
        0 -1 86248 4.0703471750020981e-03</internalNodes>
      <leafValues>
        -1.4672382175922394e-01 3.7115225195884705e-01</leafValues></_>
    <_>
      <internalNodes>
        0 -1 58867 2.9955101199448109e-03</internalNodes>
      <leafValues>
        1.0582982748746872e-01 -5.3868389129638672e-01</leafValues></_>
    <_>
      <internalNodes>
        0 -1 84087 -7.3612280189990997e-02</internalNodes>
      <leafValues>
        -9.0780431032180786e-01 5.2917588502168655e-02</leafValues></_>
    <_>
      <internalNodes>
        0 -1 93690 -2.3749461397528648e-03</internalNodes>
      <leafValues>
        -4.9968963861465454e-01 9.9795624613761902e-02</leafValues></_>
    <_>
      <internalNodes>
        0 -1 18910 4.8966268077492714e-03</internalNodes>
      <leafValues>
        -1.4492104947566986e-01 3.6731564998626709e-01</leafValues></_>
    <_>
      <internalNodes>
        0 -1 105440 1.8089567311108112e-03</internalNodes>
      <leafValues>
        -1.3177454471588135e-01 3.7746581435203552e-01</leafValues></_>
    <_>
      <internalNodes>
        0 -1 9 5.4774768650531769e-03</internalNodes>
      <leafValues>
        8.4825925529003143e-02 -5.8464485406875610e-01</leafValues></_>
    <_>
      <internalNodes>
        0 -1 76394 -7.3492323281243443e-04</internalNodes>
      <leafValues>
        3.2843095064163208e-01 -1.5140807628631592e-01</leafValues></_>
    <_>
      <internalNodes>
        0 -1 82125 -5.8786701411008835e-03</internalNodes>
      <leafValues>
        4.9221825599670410e-01 -1.4374175667762756e-01</leafValues></_>
    <_>
      <internalNodes>
        0 -1 82812 5.5085895583033562e-03</internalNodes>
      <leafValues>
        -1.0569984465837479e-01 5.4554748535156250e-01</leafValues></_>
    <_>
      <internalNodes>
        0 -1 89497 4.5322640798985958e-03</internalNodes>
      <leafValues>
        7.7899165451526642e-02 -8.2982856035232544e-01</leafValues></_>
    <_>
      <internalNodes>
        0 -1 44989 4.0358919650316238e-03</internalNodes>
      <leafValues>
        -1.8488530814647675e-01 3.0427476763725281e-01</leafValues></_>
    <_>
      <internalNodes>
        0 -1 63669 -1.5750361606478691e-02</internalNodes>
      <leafValues>
        6.2507277727127075e-01 -9.2112660408020020e-02</leafValues></_>
    <_>
      <internalNodes>
        0 -1 114894 -1.0102789383381605e-03</internalNodes>
      <leafValues>
        -2.8880447149276733e-01 1.9756112992763519e-01</leafValues></_>
    <_>
      <internalNodes>
        0 -1 52816 3.6145627498626709e-02</internalNodes>
      <leafValues>
        5.9313029050827026e-02 -8.8249111175537109e-01</leafValues></_>
    <_>
      <internalNodes>
        0 -1 118392 1.2756695970892906e-02</internalNodes>
      <leafValues>
        -9.4395659863948822e-02 6.1689293384552002e-01</leafValues></_></weakClassifiers></stage19>
</opencv_storage>
