<?xml version="1.0"?>
<opencv_storage>
<stage6>
  <maxWeakCount>23</maxWeakCount>
  <stageThreshold>-1.1626007556915283e+00</stageThreshold>
  <weakClassifiers>
    <_>
      <internalNodes>
        0 -1 5401 1.6019746661186218e-01</internalNodes>
      <leafValues>
        -2.2164948284626007e-01 6.2550884485244751e-01</leafValues></_>
    <_>
      <internalNodes>
        0 -1 32883 1.6094857454299927e-01</internalNodes>
      <leafValues>
        -2.3869988322257996e-01 5.8810979127883911e-01</leafValues></_>
    <_>
      <internalNodes>
        0 -1 96689 8.8273052824661136e-04</internalNodes>
      <leafValues>
        -5.9632366895675659e-01 2.2882488369941711e-01</leafValues></_>
    <_>
      <internalNodes>
        0 -1 90933 -2.3215837776660919e-02</internalNodes>
      <leafValues>
        -8.8070172071456909e-01 1.2101840227842331e-01</leafValues></_>
    <_>
      <internalNodes>
        0 -1 68720 -2.6322338730096817e-02</internalNodes>
      <leafValues>
        5.9837096929550171e-01 -1.8394874036312103e-01</leafValues></_>
    <_>
      <internalNodes>
        0 -1 63985 -4.3141387403011322e-02</internalNodes>
      <leafValues>
        7.5625658035278320e-01 -1.1487292498350143e-01</leafValues></_>
    <_>
      <internalNodes>
        0 -1 77378 2.3814875166863203e-03</internalNodes>
      <leafValues>
        1.4923706650733948e-01 -6.7291837930679321e-01</leafValues></_>
    <_>
      <internalNodes>
        0 -1 76862 -1.3364099431782961e-03</internalNodes>
      <leafValues>
        -6.1128246784210205e-01 1.2412846833467484e-01</leafValues></_>
    <_>
      <internalNodes>
        0 -1 97781 9.0616140514612198e-03</internalNodes>
      <leafValues>
        -1.3552132248878479e-01 6.9079357385635376e-01</leafValues></_>
    <_>
      <internalNodes>
        0 -1 17478 4.7185514122247696e-03</internalNodes>
      <leafValues>
        -1.4647217094898224e-01 5.1726830005645752e-01</leafValues></_>
    <_>
      <internalNodes>
        0 -1 118139 3.1014955602586269e-03</internalNodes>
      <leafValues>
        -2.1738068759441376e-01 4.1470617055892944e-01</leafValues></_>
    <_>
      <internalNodes>
        0 -1 75746 -2.9161409474909306e-03</internalNodes>
      <leafValues>
        -5.5305081605911255e-01 1.4416718482971191e-01</leafValues></_>
    <_>
      <internalNodes>
        0 -1 76320 4.1610193438827991e-03</internalNodes>
      <leafValues>
        1.5843495726585388e-01 -4.8907241225242615e-01</leafValues></_>
    <_>
      <internalNodes>
        0 -1 65739 -1.6089815646409988e-02</internalNodes>
      <leafValues>
        5.8460259437561035e-01 -1.7152228951454163e-01</leafValues></_>
    <_>
      <internalNodes>
        0 -1 55324 5.9953383170068264e-03</internalNodes>
      <leafValues>
        -1.4192871749401093e-01 5.6320172548294067e-01</leafValues></_>
    <_>
      <internalNodes>
        0 -1 81366 -2.0216347184032202e-03</internalNodes>
      <leafValues>
        -4.5932897925376892e-01 1.8235860764980316e-01</leafValues></_>
    <_>
      <internalNodes>
        0 -1 99475 6.6140072885900736e-04</internalNodes>
      <leafValues>
        -3.1797671318054199e-01 2.3729468882083893e-01</leafValues></_>
    <_>
      <internalNodes>
        0 -1 54129 4.5819138176739216e-03</internalNodes>
      <leafValues>
        -2.1761164069175720e-01 3.5264343023300171e-01</leafValues></_>
    <_>
      <internalNodes>
        0 -1 88303 5.6090531870722771e-03</internalNodes>
      <leafValues>
        1.4367122948169708e-01 -5.4671853780746460e-01</leafValues></_>
    <_>
      <internalNodes>
        0 -1 98259 1.4581455849111080e-02</internalNodes>
      <leafValues>
        -1.5176585316658020e-01 5.4477536678314209e-01</leafValues></_>
    <_>
      <internalNodes>
        0 -1 26654 2.9323730617761612e-02</internalNodes>
      <leafValues>
        -2.4364233016967773e-01 2.9254522919654846e-01</leafValues></_>
    <_>
      <internalNodes>
        0 -1 45208 -3.8452252745628357e-02</internalNodes>
      <leafValues>
        -6.6448479890823364e-01 1.2575307488441467e-01</leafValues></_>
    <_>
      <internalNodes>
        0 -1 14091 -1.3093946035951376e-03</internalNodes>
      <leafValues>
        -4.1355970501899719e-01 1.9920353591442108e-01</leafValues></_></weakClassifiers></stage6>
</opencv_storage>
