<?xml version="1.0"?>
<opencv_storage>
<stage1>
  <maxWeakCount>9</maxWeakCount>
  <stageThreshold>-9.3948870897293091e-01</stageThreshold>
  <weakClassifiers>
    <_>
      <internalNodes>
        0 -1 12123 1.5303549170494080e-01</internalNodes>
      <leafValues>
        -6.1363637447357178e-01 7.6455366611480713e-01</leafValues></_>
    <_>
      <internalNodes>
        0 -1 124611 6.5525672398507595e-03</internalNodes>
      <leafValues>
        -4.0151694416999817e-01 6.2432074546813965e-01</leafValues></_>
    <_>
      <internalNodes>
        0 -1 68097 3.6563724279403687e-03</internalNodes>
      <leafValues>
        -2.8024381399154663e-01 7.0716607570648193e-01</leafValues></_>
    <_>
      <internalNodes>
        0 -1 17478 3.3483002334833145e-03</internalNodes>
      <leafValues>
        -2.3957063257694244e-01 8.3308863639831543e-01</leafValues></_>
    <_>
      <internalNodes>
        0 -1 120991 1.8496303819119930e-03</internalNodes>
      <leafValues>
        -2.4957662820816040e-01 7.1993982791900635e-01</leafValues></_>
    <_>
      <internalNodes>
        0 -1 63513 2.8089492116123438e-03</internalNodes>
      <leafValues>
        -2.6191592216491699e-01 6.8197417259216309e-01</leafValues></_>
    <_>
      <internalNodes>
        0 -1 36543 6.5561668016016483e-03</internalNodes>
      <leafValues>
        -2.2701653838157654e-01 8.2619208097457886e-01</leafValues></_>
    <_>
      <internalNodes>
        0 -1 84056 4.2133275419473648e-03</internalNodes>
      <leafValues>
        -2.3537991940975189e-01 7.2734946012496948e-01</leafValues></_>
    <_>
      <internalNodes>
        0 -1 125133 2.9985208529978991e-03</internalNodes>
      <leafValues>
        -3.1545633077621460e-01 5.9985160827636719e-01</leafValues></_></weakClassifiers></stage1>
</opencv_storage>
