<?xml version="1.0"?>
<opencv_storage>
<stage15>
  <maxWeakCount>33</maxWeakCount>
  <stageThreshold>-9.4670915603637695e-01</stageThreshold>
  <weakClassifiers>
    <_>
      <internalNodes>
        0 -1 103669 3.7947667296975851e-03</internalNodes>
      <leafValues>
        -7.9452052712440491e-02 5.3157895803451538e-01</leafValues></_>
    <_>
      <internalNodes>
        0 -1 86485 1.3789376243948936e-02</internalNodes>
      <leafValues>
        -1.1319994926452637e-01 4.8604953289031982e-01</leafValues></_>
    <_>
      <internalNodes>
        0 -1 69487 -4.2325081303715706e-03</internalNodes>
      <leafValues>
        -6.0473984479904175e-01 1.1975789070129395e-01</leafValues></_>
    <_>
      <internalNodes>
        0 -1 8024 1.9282687455415726e-02</internalNodes>
      <leafValues>
        -2.0686157047748566e-01 3.1556710600852966e-01</leafValues></_>
    <_>
      <internalNodes>
        0 -1 15092 2.2123703360557556e-01</internalNodes>
      <leafValues>
        -9.9125109612941742e-02 8.1147748231887817e-01</leafValues></_>
    <_>
      <internalNodes>
        0 -1 44550 -3.0071446672081947e-03</internalNodes>
      <leafValues>
        3.6593589186668396e-01 -1.3918989896774292e-01</leafValues></_>
    <_>
      <internalNodes>
        0 -1 107531 -3.7909583188593388e-03</internalNodes>
      <leafValues>
        -3.1401878595352173e-01 1.8973289430141449e-01</leafValues></_>
    <_>
      <internalNodes>
        0 -1 76347 -1.6885455697774887e-02</internalNodes>
      <leafValues>
        6.8177193403244019e-01 -1.0195279121398926e-01</leafValues></_>
    <_>
      <internalNodes>
        0 -1 70260 2.4306622799485922e-03</internalNodes>
      <leafValues>
        8.4811136126518250e-02 -6.2614208459854126e-01</leafValues></_>
    <_>
      <internalNodes>
        0 -1 67106 -1.0527363047003746e-03</internalNodes>
      <leafValues>
        2.6479184627532959e-01 -1.9487865269184113e-01</leafValues></_>
    <_>
      <internalNodes>
        0 -1 33144 -1.6292021609842777e-03</internalNodes>
      <leafValues>
        3.9209789037704468e-01 -1.4559376239776611e-01</leafValues></_>
    <_>
      <internalNodes>
        0 -1 91039 -3.8779354654252529e-03</internalNodes>
      <leafValues>
        -8.0845999717712402e-01 6.6033706068992615e-02</leafValues></_>
    <_>
      <internalNodes>
        0 -1 83383 -5.7224254123866558e-03</internalNodes>
      <leafValues>
        4.2356902360916138e-01 -1.4615921676158905e-01</leafValues></_>
    <_>
      <internalNodes>
        0 -1 83786 1.2233633315190673e-03</internalNodes>
      <leafValues>
        -2.5831580162048340e-01 2.4390771985054016e-01</leafValues></_>
    <_>
      <internalNodes>
        0 -1 91019 5.0440931227058172e-04</internalNodes>
      <leafValues>
        -2.3966370522975922e-01 2.6734992861747742e-01</leafValues></_>
    <_>
      <internalNodes>
        0 -1 37951 -2.8598698554560542e-04</internalNodes>
      <leafValues>
        -2.8412619233131409e-01 2.1975462138652802e-01</leafValues></_>
    <_>
      <internalNodes>
        0 -1 91562 9.2976372689008713e-03</internalNodes>
      <leafValues>
        9.8303928971290588e-02 -5.7006895542144775e-01</leafValues></_>
    <_>
      <internalNodes>
        0 -1 98268 2.0544009283185005e-02</internalNodes>
      <leafValues>
        -1.3231186568737030e-01 5.6895500421524048e-01</leafValues></_>
    <_>
      <internalNodes>
        0 -1 63324 -6.2841661274433136e-03</internalNodes>
      <leafValues>
        3.9506545662879944e-01 -1.6019378602504730e-01</leafValues></_>
    <_>
      <internalNodes>
        0 -1 103582 -1.1588225141167641e-02</internalNodes>
      <leafValues>
        -5.7184493541717529e-01 1.3295774161815643e-01</leafValues></_>
    <_>
      <internalNodes>
        0 -1 35875 -2.9968313872814178e-02</internalNodes>
      <leafValues>
        -6.0425806045532227e-01 1.0790751129388809e-01</leafValues></_>
    <_>
      <internalNodes>
        0 -1 99294 1.3998855138197541e-03</internalNodes>
      <leafValues>
        -2.3349784314632416e-01 3.6306813359260559e-01</leafValues></_>
    <_>
      <internalNodes>
        0 -1 36894 3.8721053861081600e-03</internalNodes>
      <leafValues>
        -1.6545683145523071e-01 4.3935638666152954e-01</leafValues></_>
    <_>
      <internalNodes>
        0 -1 112960 1.9715246744453907e-03</internalNodes>
      <leafValues>
        1.3898222148418427e-01 -4.0353301167488098e-01</leafValues></_>
    <_>
      <internalNodes>
        0 -1 88823 1.3189670629799366e-02</internalNodes>
      <leafValues>
        -7.0534996688365936e-02 8.6010259389877319e-01</leafValues></_>
    <_>
      <internalNodes>
        0 -1 95359 1.5177846886217594e-02</internalNodes>
      <leafValues>
        -1.3433413207530975e-01 4.2223003506660461e-01</leafValues></_>
    <_>
      <internalNodes>
        0 -1 117783 2.0252466201782227e-03</internalNodes>
      <leafValues>
        -1.6851240396499634e-01 3.6835682392120361e-01</leafValues></_>
    <_>
      <internalNodes>
        0 -1 18989 3.8192896172404289e-03</internalNodes>
      <leafValues>
        9.9982999265193939e-02 -5.3789615631103516e-01</leafValues></_>
    <_>
      <internalNodes>
        0 -1 45724 2.5694614276289940e-02</internalNodes>
      <leafValues>
        6.2869556248188019e-02 -8.4199059009552002e-01</leafValues></_>
    <_>
      <internalNodes>
        0 -1 74374 4.8299431800842285e-03</internalNodes>
      <leafValues>
        6.5964236855506897e-02 -6.9167429208755493e-01</leafValues></_>
    <_>
      <internalNodes>
        0 -1 92798 1.8524338884162717e-05</internalNodes>
      <leafValues>
        -2.2692546248435974e-01 2.2867174446582794e-01</leafValues></_>
    <_>
      <internalNodes>
        0 -1 91516 1.3701930642127991e-02</internalNodes>
      <leafValues>
        -1.3127672672271729e-01 5.4003763198852539e-01</leafValues></_>
    <_>
      <internalNodes>
        0 -1 76882 6.3474047929048538e-03</internalNodes>
      <leafValues>
        -2.0402280986309052e-01 2.9682630300521851e-01</leafValues></_></weakClassifiers></stage15>
</opencv_storage>
