<?xml version="1.0"?>
<opencv_storage>
<stage0>
  <maxWeakCount>5</maxWeakCount>
  <stageThreshold>-1.0490603446960449e+00</stageThreshold>
  <weakClassifiers>
    <_>
      <internalNodes>
        0 -1 5431 3.3727686852216721e-02</internalNodes>
      <leafValues>
        -7.3961216211318970e-01 8.4031414985656738e-01</leafValues></_>
    <_>
      <internalNodes>
        0 -1 85878 1.3294463045895100e-02</internalNodes>
      <leafValues>
        -4.1551110148429871e-01 7.3835670948028564e-01</leafValues></_>
    <_>
      <internalNodes>
        0 -1 49758 9.2864772304892540e-03</internalNodes>
      <leafValues>
        -3.1566777825355530e-01 6.5819233655929565e-01</leafValues></_>
    <_>
      <internalNodes>
        0 -1 85738 8.4872711449861526e-03</internalNodes>
      <leafValues>
        -3.0295541882514954e-01 6.6307109594345093e-01</leafValues></_>
    <_>
      <internalNodes>
        0 -1 68719 -1.7823040485382080e-02</internalNodes>
      <leafValues>
        7.9088771343231201e-01 -2.4134033918380737e-01</leafValues></_></weakClassifiers></stage0>
</opencv_storage>
