<?xml version="1.0"?>
<opencv_storage>
<stage16>
  <maxWeakCount>28</maxWeakCount>
  <stageThreshold>-7.7214044332504272e-01</stageThreshold>
  <weakClassifiers>
    <_>
      <internalNodes>
        0 -1 49841 3.9538789540529251e-02</internalNodes>
      <leafValues>
        -1.0975609719753265e-01 5.1568382978439331e-01</leafValues></_>
    <_>
      <internalNodes>
        0 -1 18702 -2.5622844696044922e-02</internalNodes>
      <leafValues>
        3.2329070568084717e-01 -2.5741985440254211e-01</leafValues></_>
    <_>
      <internalNodes>
        0 -1 75925 9.4469804316759109e-03</internalNodes>
      <leafValues>
        1.6606475412845612e-01 -4.5575499534606934e-01</leafValues></_>
    <_>
      <internalNodes>
        0 -1 103981 -1.2178705073893070e-03</internalNodes>
      <leafValues>
        -3.8991159200668335e-01 1.5309260785579681e-01</leafValues></_>
    <_>
      <internalNodes>
        0 -1 90281 -6.6469204612076283e-03</internalNodes>
      <leafValues>
        -7.1491420269012451e-01 8.2016594707965851e-02</leafValues></_>
    <_>
      <internalNodes>
        0 -1 85839 1.6425266861915588e-02</internalNodes>
      <leafValues>
        -1.9063040614128113e-01 2.8524520993232727e-01</leafValues></_>
    <_>
      <internalNodes>
        0 -1 76487 -1.4604863245040178e-03</internalNodes>
      <leafValues>
        3.0528602004051208e-01 -1.9628401100635529e-01</leafValues></_>
    <_>
      <internalNodes>
        0 -1 124805 6.3871237216517329e-04</internalNodes>
      <leafValues>
        1.8603040277957916e-01 -3.1634426116943359e-01</leafValues></_>
    <_>
      <internalNodes>
        0 -1 73326 -1.5005743503570557e-01</internalNodes>
      <leafValues>
        -8.4023612737655640e-01 4.0501113981008530e-02</leafValues></_>
    <_>
      <internalNodes>
        0 -1 45512 5.3109927102923393e-03</internalNodes>
      <leafValues>
        -2.1212635934352875e-01 2.5575080513954163e-01</leafValues></_>
    <_>
      <internalNodes>
        0 -1 85732 7.8183009463828057e-05</internalNodes>
      <leafValues>
        -2.2957023978233337e-01 2.7685710787773132e-01</leafValues></_>
    <_>
      <internalNodes>
        0 -1 84634 4.8403642140328884e-03</internalNodes>
      <leafValues>
        5.7693988084793091e-02 -8.8644915819168091e-01</leafValues></_>
    <_>
      <internalNodes>
        0 -1 115688 9.2710396274924278e-03</internalNodes>
      <leafValues>
        -1.4003492891788483e-01 4.5361939072608948e-01</leafValues></_>
    <_>
      <internalNodes>
        0 -1 98443 -5.0196265801787376e-03</internalNodes>
      <leafValues>
        1.5624441206455231e-01 -3.8537684082984924e-01</leafValues></_>
    <_>
      <internalNodes>
        0 -1 44760 1.1423024535179138e-01</internalNodes>
      <leafValues>
        8.1755049526691437e-02 -6.9200515747070312e-01</leafValues></_>
    <_>
      <internalNodes>
        0 -1 98684 1.4739766716957092e-02</internalNodes>
      <leafValues>
        -1.0721430182456970e-01 6.1475056409835815e-01</leafValues></_>
    <_>
      <internalNodes>
        0 -1 67160 -6.3217766582965851e-03</internalNodes>
      <leafValues>
        -6.3194620609283447e-01 1.0361883044242859e-01</leafValues></_>
    <_>
      <internalNodes>
        0 -1 69871 3.8933120667934418e-03</internalNodes>
      <leafValues>
        7.2218507528305054e-02 -6.5703278779983521e-01</leafValues></_>
    <_>
      <internalNodes>
        0 -1 3138 -7.0852957665920258e-02</internalNodes>
      <leafValues>
        1. -6.2939390540122986e-02</leafValues></_>
    <_>
      <internalNodes>
        0 -1 86019 -3.7405341863632202e-03</internalNodes>
      <leafValues>
        4.2144259810447693e-01 -1.1117820441722870e-01</leafValues></_>
    <_>
      <internalNodes>
        0 -1 92899 7.5011192820966244e-03</internalNodes>
      <leafValues>
        -2.6480901241302490e-01 2.0539267361164093e-01</leafValues></_>
    <_>
      <internalNodes>
        0 -1 79278 9.6764182671904564e-03</internalNodes>
      <leafValues>
        -1.5695081651210785e-01 3.6559036374092102e-01</leafValues></_>
    <_>
      <internalNodes>
        0 -1 72318 -1.2536192312836647e-02</internalNodes>
      <leafValues>
        4.2200922966003418e-01 -1.4234603941440582e-01</leafValues></_>
    <_>
      <internalNodes>
        0 -1 83680 -4.2485080484766513e-05</internalNodes>
      <leafValues>
        2.1976952254772186e-01 -2.7676853537559509e-01</leafValues></_>
    <_>
      <internalNodes>
        0 -1 82655 -7.5256214477121830e-03</internalNodes>
      <leafValues>
        -6.7320019006729126e-01 8.7015219032764435e-02</leafValues></_>
    <_>
      <internalNodes>
        0 -1 109231 4.0612347424030304e-02</internalNodes>
      <leafValues>
        6.8476706743240356e-02 -6.8036949634552002e-01</leafValues></_>
    <_>
      <internalNodes>
        0 -1 6962 5.7587968185544014e-03</internalNodes>
      <leafValues>
        -9.0004332363605499e-02 6.6800314188003540e-01</leafValues></_>
    <_>
      <internalNodes>
        0 -1 106410 2.6329164393246174e-04</internalNodes>
      <leafValues>
        -1.6380216181278229e-01 3.4191513061523438e-01</leafValues></_></weakClassifiers></stage16>
</opencv_storage>
