<?xml version="1.0"?>
<opencv_storage>
<stage7>
  <maxWeakCount>21</maxWeakCount>
  <stageThreshold>-1.0437737703323364e+00</stageThreshold>
  <weakClassifiers>
    <_>
      <internalNodes>
        0 -1 15352 -5.3135540336370468e-02</internalNodes>
      <leafValues>
        -4.0659341216087341e-01 5.7042253017425537e-01</leafValues></_>
    <_>
      <internalNodes>
        0 -1 77380 4.4318037107586861e-03</internalNodes>
      <leafValues>
        2.2414436936378479e-01 -7.7253013849258423e-01</leafValues></_>
    <_>
      <internalNodes>
        0 -1 4705 2.4252834916114807e-01</internalNodes>
      <leafValues>
        -2.7728509902954102e-01 4.2966878414154053e-01</leafValues></_>
    <_>
      <internalNodes>
        0 -1 60609 2.6150199119001627e-04</internalNodes>
      <leafValues>
        1.9276620447635651e-01 -5.3710621595382690e-01</leafValues></_>
    <_>
      <internalNodes>
        0 -1 113254 9.9118594080209732e-03</internalNodes>
      <leafValues>
        1.6618138551712036e-01 -5.1291054487228394e-01</leafValues></_>
    <_>
      <internalNodes>
        0 -1 77352 -1.0807281360030174e-03</internalNodes>
      <leafValues>
        -6.5217602252960205e-01 1.3779643177986145e-01</leafValues></_>
    <_>
      <internalNodes>
        0 -1 109621 1.6507238149642944e-02</internalNodes>
      <leafValues>
        -1.9809868931770325e-01 4.9609515070915222e-01</leafValues></_>
    <_>
      <internalNodes>
        0 -1 54726 2.7226513251662254e-02</internalNodes>
      <leafValues>
        1.0855572670698166e-01 -8.4398329257965088e-01</leafValues></_>
    <_>
      <internalNodes>
        0 -1 69380 -3.3667319803498685e-04</internalNodes>
      <leafValues>
        -4.7544869780540466e-01 1.9028683006763458e-01</leafValues></_>
    <_>
      <internalNodes>
        0 -1 100470 -1.0928561678156257e-03</internalNodes>
      <leafValues>
        -5.4745024442672729e-01 1.4972619712352753e-01</leafValues></_>
    <_>
      <internalNodes>
        0 -1 78690 1.9122790545225143e-02</internalNodes>
      <leafValues>
        1.3931846618652344e-01 -5.6108248233795166e-01</leafValues></_>
    <_>
      <internalNodes>
        0 -1 58859 -8.6799735436215997e-04</internalNodes>
      <leafValues>
        -5.6512117385864258e-01 1.1649576574563980e-01</leafValues></_>
    <_>
      <internalNodes>
        0 -1 77033 -2.6599760167300701e-03</internalNodes>
      <leafValues>
        4.1335865855216980e-01 -2.4348109960556030e-01</leafValues></_>
    <_>
      <internalNodes>
        0 -1 91350 -2.0402202382683754e-02</internalNodes>
      <leafValues>
        -8.9232665300369263e-01 1.2407743185758591e-01</leafValues></_>
    <_>
      <internalNodes>
        0 -1 55771 -6.8599369842559099e-04</internalNodes>
      <leafValues>
        -5.1627331972122192e-01 1.3800667226314545e-01</leafValues></_>
    <_>
      <internalNodes>
        0 -1 52775 -7.6071848161518574e-04</internalNodes>
      <leafValues>
        -3.1145849823951721e-01 2.5154995918273926e-01</leafValues></_>
    <_>
      <internalNodes>
        0 -1 103123 5.0810603424906731e-03</internalNodes>
      <leafValues>
        -3.2905283570289612e-01 2.5755342841148376e-01</leafValues></_>
    <_>
      <internalNodes>
        0 -1 84276 -4.3869828805327415e-03</internalNodes>
      <leafValues>
        -8.0960094928741455e-01 1.0105194151401520e-01</leafValues></_>
    <_>
      <internalNodes>
        0 -1 122284 1.3655986404046416e-03</internalNodes>
      <leafValues>
        1.1771985888481140e-01 -5.8316129446029663e-01</leafValues></_>
    <_>
      <internalNodes>
        0 -1 53953 1.6995139420032501e-02</internalNodes>
      <leafValues>
        9.1837011277675629e-02 -7.7013641595840454e-01</leafValues></_>
    <_>
      <internalNodes>
        0 -1 77353 5.7436007773503661e-04</internalNodes>
      <leafValues>
        -2.8530007600784302e-01 2.8142166137695312e-01</leafValues></_></weakClassifiers></stage7>
</opencv_storage>
