<?xml version="1.0"?>
<opencv_storage>
<stage10>
  <maxWeakCount>25</maxWeakCount>
  <stageThreshold>-9.7079372406005859e-01</stageThreshold>
  <weakClassifiers>
    <_>
      <internalNodes>
        0 -1 60568 -3.9340732619166374e-03</internalNodes>
      <leafValues>
        5.0620067119598389e-01 -3.1092438101768494e-01</leafValues></_>
    <_>
      <internalNodes>
        0 -1 69165 1.1671086400747299e-01</internalNodes>
      <leafValues>
        -3.9454290270805359e-01 3.7467634677886963e-01</leafValues></_>
    <_>
      <internalNodes>
        0 -1 119342 4.0641333907842636e-02</internalNodes>
      <leafValues>
        -2.7651140093803406e-01 3.8691252470016479e-01</leafValues></_>
    <_>
      <internalNodes>
        0 -1 7044 2.3282252252101898e-02</internalNodes>
      <leafValues>
        -1.7133401334285736e-01 3.7798297405242920e-01</leafValues></_>
    <_>
      <internalNodes>
        0 -1 75289 -1.8961541354656219e-02</internalNodes>
      <leafValues>
        6.4593046903610229e-01 -1.0054036229848862e-01</leafValues></_>
    <_>
      <internalNodes>
        0 -1 89527 3.0209898948669434e-02</internalNodes>
      <leafValues>
        -1.4717066287994385e-01 5.1936918497085571e-01</leafValues></_>
    <_>
      <internalNodes>
        0 -1 83734 6.8072453141212463e-03</internalNodes>
      <leafValues>
        9.1116510331630707e-02 -6.9387429952621460e-01</leafValues></_>
    <_>
      <internalNodes>
        0 -1 34173 -4.9559770559426397e-05</internalNodes>
      <leafValues>
        2.0861615240573883e-01 -3.1495213508605957e-01</leafValues></_>
    <_>
      <internalNodes>
        0 -1 74426 2.9153415933251381e-02</internalNodes>
      <leafValues>
        -9.7932010889053345e-02 6.3493943214416504e-01</leafValues></_>
    <_>
      <internalNodes>
        0 -1 122674 -1.1170532554388046e-02</internalNodes>
      <leafValues>
        4.4240072369575500e-01 -1.4948843419551849e-01</leafValues></_>
    <_>
      <internalNodes>
        0 -1 76862 2.5198038201779127e-05</internalNodes>
      <leafValues>
        -3.6581987142562866e-01 2.0174543559551239e-01</leafValues></_>
    <_>
      <internalNodes>
        0 -1 57401 1.6261721029877663e-03</internalNodes>
      <leafValues>
        1.6252660751342773e-01 -4.3428048491477966e-01</leafValues></_>
    <_>
      <internalNodes>
        0 -1 53071 7.4942642822861671e-03</internalNodes>
      <leafValues>
        1.1115349084138870e-01 -6.2437498569488525e-01</leafValues></_>
    <_>
      <internalNodes>
        0 -1 53179 -6.3671484589576721e-02</internalNodes>
      <leafValues>
        -7.1141123771667480e-01 9.3341283500194550e-02</leafValues></_>
    <_>
      <internalNodes>
        0 -1 123552 2.9424583772197366e-04</internalNodes>
      <leafValues>
        1.5454842150211334e-01 -3.7014961242675781e-01</leafValues></_>
    <_>
      <internalNodes>
        0 -1 94449 -8.4556383080780506e-04</internalNodes>
      <leafValues>
        -3.7944287061691284e-01 1.6246376931667328e-01</leafValues></_>
    <_>
      <internalNodes>
        0 -1 86121 9.9624246358871460e-03</internalNodes>
      <leafValues>
        -1.7665819823741913e-01 3.5041308403015137e-01</leafValues></_>
    <_>
      <internalNodes>
        0 -1 70353 2.4340689182281494e-02</internalNodes>
      <leafValues>
        -2.4710315465927124e-01 3.5355767607688904e-01</leafValues></_>
    <_>
      <internalNodes>
        0 -1 78640 -2.7093908283859491e-03</internalNodes>
      <leafValues>
        4.2468139529228210e-01 -1.6355068981647491e-01</leafValues></_>
    <_>
      <internalNodes>
        0 -1 4328 3.6087997257709503e-02</internalNodes>
      <leafValues>
        -1.8289792537689209e-01 3.3477532863616943e-01</leafValues></_>
    <_>
      <internalNodes>
        0 -1 90552 1.3359749689698219e-02</internalNodes>
      <leafValues>
        -8.2278467714786530e-02 8.2835888862609863e-01</leafValues></_>
    <_>
      <internalNodes>
        0 -1 77352 1.1987248435616493e-03</internalNodes>
      <leafValues>
        1.6884315013885498e-01 -4.7803533077239990e-01</leafValues></_>
    <_>
      <internalNodes>
        0 -1 69271 -1.3501748442649841e-02</internalNodes>
      <leafValues>
        5.5595761537551880e-01 -1.2100852280855179e-01</leafValues></_>
    <_>
      <internalNodes>
        0 -1 112391 -9.1637279838323593e-03</internalNodes>
      <leafValues>
        2.1662616729736328e-01 -2.9597967863082886e-01</leafValues></_>
    <_>
      <internalNodes>
        0 -1 93388 4.5670396648347378e-03</internalNodes>
      <leafValues>
        -1.3810470700263977e-01 5.2628767490386963e-01</leafValues></_></weakClassifiers></stage10>
</opencv_storage>
