<?xml version="1.0"?>
<opencv_storage>
<stage8>
  <maxWeakCount>22</maxWeakCount>
  <stageThreshold>-1.1416772603988647e+00</stageThreshold>
  <weakClassifiers>
    <_>
      <internalNodes>
        0 -1 59025 -2.0460570231080055e-02</internalNodes>
      <leafValues>
        5.9675234556198120e-01 -1.7098446190357208e-01</leafValues></_>
    <_>
      <internalNodes>
        0 -1 121177 -9.8013291135430336e-03</internalNodes>
      <leafValues>
        5.0735622644424438e-01 -2.1878108382225037e-01</leafValues></_>
    <_>
      <internalNodes>
        0 -1 45821 7.8550279140472412e-03</internalNodes>
      <leafValues>
        -1.8679250776767731e-01 5.7255864143371582e-01</leafValues></_>
    <_>
      <internalNodes>
        0 -1 68190 5.2300514653325081e-03</internalNodes>
      <leafValues>
        -2.5620749592781067e-01 4.1209915280342102e-01</leafValues></_>
    <_>
      <internalNodes>
        0 -1 61075 4.8710289411246777e-03</internalNodes>
      <leafValues>
        -4.1824233531951904e-01 2.1880592405796051e-01</leafValues></_>
    <_>
      <internalNodes>
        0 -1 69319 3.9690881967544556e-02</internalNodes>
      <leafValues>
        9.5280386507511139e-02 -8.3640617132186890e-01</leafValues></_>
    <_>
      <internalNodes>
        0 -1 92268 1.3010043650865555e-02</internalNodes>
      <leafValues>
        -2.1075066924095154e-01 5.2106416225433350e-01</leafValues></_>
    <_>
      <internalNodes>
        0 -1 97656 3.0056675896048546e-02</internalNodes>
      <leafValues>
        1.9935919344425201e-01 -5.7227957248687744e-01</leafValues></_>
    <_>
      <internalNodes>
        0 -1 71483 -1.4796177856624126e-03</internalNodes>
      <leafValues>
        4.1019684076309204e-01 -2.3352123796939850e-01</leafValues></_>
    <_>
      <internalNodes>
        0 -1 10802 2.4218137562274933e-01</internalNodes>
      <leafValues>
        -2.1801595389842987e-01 3.9595162868499756e-01</leafValues></_>
    <_>
      <internalNodes>
        0 -1 105227 -1.1374573223292828e-03</internalNodes>
      <leafValues>
        3.6377426981925964e-01 -2.6537951827049255e-01</leafValues></_>
    <_>
      <internalNodes>
        0 -1 36543 5.0384709611535072e-03</internalNodes>
      <leafValues>
        -2.2077965736389160e-01 4.0983229875564575e-01</leafValues></_>
    <_>
      <internalNodes>
        0 -1 92291 9.6833379939198494e-04</internalNodes>
      <leafValues>
        -2.1105240285396576e-01 4.3999561667442322e-01</leafValues></_>
    <_>
      <internalNodes>
        0 -1 108983 4.9114157445728779e-03</internalNodes>
      <leafValues>
        -2.5178366899490356e-01 4.1907548904418945e-01</leafValues></_>
    <_>
      <internalNodes>
        0 -1 96290 -1.6853816807270050e-02</internalNodes>
      <leafValues>
        -7.5145876407623291e-01 1.2227959185838699e-01</leafValues></_>
    <_>
      <internalNodes>
        0 -1 44249 -2.1732565015554428e-02</internalNodes>
      <leafValues>
        -4.8162773251533508e-01 1.5912795066833496e-01</leafValues></_>
    <_>
      <internalNodes>
        0 -1 118503 2.8154196217656136e-02</internalNodes>
      <leafValues>
        -1.5648238360881805e-01 5.5549842119216919e-01</leafValues></_>
    <_>
      <internalNodes>
        0 -1 108936 2.2740829735994339e-02</internalNodes>
      <leafValues>
        1.2757067382335663e-01 -6.9786822795867920e-01</leafValues></_>
    <_>
      <internalNodes>
        0 -1 26888 3.1259872019290924e-02</internalNodes>
      <leafValues>
        -2.6768732070922852e-01 3.1874594092369080e-01</leafValues></_>
    <_>
      <internalNodes>
        0 -1 69568 -1.6490399837493896e-02</internalNodes>
      <leafValues>
        -9.7116625308990479e-01 9.7788117825984955e-02</leafValues></_>
    <_>
      <internalNodes>
        0 -1 70993 3.3737875055521727e-03</internalNodes>
      <leafValues>
        -1.8413329124450684e-01 4.8601087927818298e-01</leafValues></_>
    <_>
      <internalNodes>
        0 -1 70313 -3.1553795561194420e-03</internalNodes>
      <leafValues>
        4.4991922378540039e-01 -2.1463871002197266e-01</leafValues></_></weakClassifiers></stage8>
</opencv_storage>
